SVM-light Version V6.02
0 # kernel type
3 # kernel parameter -d 
1 # kernel parameter -g 
1 # kernel parameter -s 
1 # kernel parameter -r 
empty# kernel parameter -u 
143262 # highest feature index 
138106 # number of training documents 
4816 # number of support vectors plus 1 
-0.37494126 # threshold b, each following line is a SV (starting with alpha*y)
-0.00045528980874014955389575409760994 1431:1 9610:1 88873:1 93786:1 96075:1 121708:1 140779:1 142063:1 #
-0.13181953535948504052655039231468 45590:1 47110:1 52083:1 75959:1 96075:1 110106:1 139752:1 140781:1 #
-0.32855293716306788187608844964416 10672:1 36662:1 52132:1 88873:1 96075:1 127533:1 139752:1 140779:1 #
0.021767371033680212033534218107889 1431:1 7218:1 24564:1 49911:1 96075:1 110101:1 137238:1 140778:1 #
-0.030449370930352676750674234540384 1431:1 18326:1 51177:1 96075:1 110106:1 121618:1 134724:1 140785:1 #
-0.27838178618804654274043741679634 10568:1 11474:1 16682:1 79134:1 96075:1 110106:1 139746:1 140780:1 #
-0.16678144978562101097274705807649 1431:1 8502:1 17542:1 41682:1 88873:1 96075:1 132008:1 140778:1 #
-0.22247300061134292481490604131977 1431:1 13349:1 19234:1 88676:1 88873:1 95901:1 96075:1 140778:1 #
0.1439207980193420721715114041217 25648:1 48570:1 93492:1 114670:1 140783:1 #
-0.1431662874448235145408148127899 57170:1 96075:1 110106:1 121618:1 134724:1 138866:1 139747:1 140785:1 #
-1 412:1 21058:1 75855:1 90281:1 96075:1 139757:1 #
-1 29645:1 66890:1 73708:1 96075:1 97140:1 139757:1 #
-1 9157:1 10887:1 35774:1 88985:1 96075:1 110102:1 139750:1 140778:1 #
-0.99488390604977616771265047646011 10887:1 88985:1 96075:1 110102:1 122717:1 137027:1 140778:1 143248:1 #
0.18122543706557056597539201447944 1431:1 32871:1 54459:1 80818:1 87240:1 88870:1 121319:1 128379:1 #
1 18023:1 89075:1 110106:1 126706:1 140781:1 #
0.97617958808092564204628160950961 1431:1 47110:1 49813:1 71800:1 75959:1 96075:1 110106:1 140781:1 #
0.63345254486246160841034225086332 23975:1 69352:1 78351:1 110113:1 140778:1 #
0.40463632077928374242148379380524 87736:1 88870:1 99968:1 117647:1 140779:1 #
-0.14139963767142635364670866238157 1431:1 96075:1 110106:1 112595:1 131117:1 135762:1 137341:1 140781:1 #
0.28634237620936764390222606380121 54610:1 84025:1 89637:1 96075:1 110106:1 122755:1 132309:1 140782:1 #
-0.073407233991616666068935614930524 1431:1 45306:1 76463:1 91720:1 96075:1 110105:1 122959:1 140778:1 #
-0.076502578436480839219058225353365 1431:1 2373:1 32687:1 60582:1 84392:1 96075:1 110106:1 140781:1 #
0.043938948412929577924668222976834 452:1 88873:1 96075:1 122341:1 127074:1 135115:1 139747:1 140779:1 #
0.09122269842833788389135918350803 412:1 21058:1 75855:1 90281:1 96075:1 139757:1 #
-1 13750:1 26541:1 75855:1 90281:1 96075:1 139747:1 #
-1 88870:1 91031:1 117647:1 140784:1 143190:1 #
-1 12201:1 19821:1 69460:1 88870:1 90329:1 96075:1 139757:1 140779:1 #
0.033021652110921971556845022632842 10887:1 32050:1 73851:1 88985:1 96075:1 110102:1 139750:1 140778:1 #
0.11715319421579002689970394612828 10887:1 56114:1 88985:1 96075:1 110102:1 129802:1 139750:1 140778:1 #
0.11771732124162949395529409457595 10887:1 30456:1 63549:1 88985:1 96075:1 110102:1 139750:1 140778:1 #
-0.023874068367759508635383980390543 1431:1 10264:1 45913:1 92802:1 94898:1 96075:1 110105:1 140778:1 #
-0.048190095022919120226756461988771 1431:1 42084:1 72440:1 96075:1 98026:1 110106:1 137593:1 140783:1 #
-0.31199236423924814332053756515961 1431:1 10887:1 39349:1 53678:1 88985:1 96075:1 110102:1 140778:1 #
-0.075248245931431340105532967754698 10887:1 78351:1 110102:1 118820:1 140778:1 #
1 14884:1 64975:1 66890:1 94206:1 121319:1 139757:1 #
0.22450113895563583721326494924142 36514:1 40377:1 75855:1 121319:1 122717:1 135294:1 #
1 30725:1 31452:1 66890:1 94206:1 121319:1 122755:1 #
0.012506058130091424196450589079177 36514:1 38205:1 75855:1 87028:1 121319:1 122755:1 #
-0.48641836754262973707696460223815 30725:1 31452:1 66890:1 94206:1 121319:1 122755:1 #
-0.00092365385410058710446978835761911 1431:1 14577:1 51218:1 61289:1 85608:1 96075:1 110105:1 140778:1 #
-0.091271449321563100087750797229091 10270:1 66890:1 84893:1 94206:1 121319:1 122755:1 #
-0.051016028037978028430998733711021 10696:1 66890:1 94206:1 112009:1 121319:1 122755:1 #
-0.10223083848265460127358039699175 1431:1 14480:1 29003:1 63652:1 96075:1 110105:1 140778:1 141607:1 #
0.12607770658106676187060202209977 1431:1 4315:1 10887:1 88985:1 96075:1 110102:1 113739:1 140778:1 #
0.26964942392361634926345459462027 1431:1 10887:1 43410:1 80010:1 88985:1 96075:1 110102:1 140778:1 #
0.20416487120224291462733390289941 1431:1 10887:1 88985:1 96075:1 100070:1 110046:1 110102:1 140778:1 #
0.10872886392284505929772819854406 1431:1 10887:1 77925:1 88985:1 96075:1 110102:1 132429:1 140778:1 #
-0.38137962426954052919114701580838 404:1 17470:1 40276:1 49649:1 96075:1 110102:1 122717:1 140778:1 #
0.010251723045794546018694148870054 1431:1 15227:1 69702:1 82875:1 83311:1 96075:1 110105:1 140778:1 #
0.070522952510714304041883337959007 71503:1 108075:1 110101:1 121260:1 121319:1 122755:1 123863:1 140781:1 #
0.035376650614656945936786769379978 47058:1 68753:1 76380:1 88860:1 111426:1 121319:1 122755:1 140781:1 #
0.55693665367037648028514240650111 5171:1 43329:1 88615:1 96075:1 110106:1 122755:1 132957:1 140781:1 #
-0.03049054102234985408337308854243 1431:1 52383:1 71590:1 96075:1 110106:1 121618:1 134724:1 140785:1 #
-0.12516087327380101545948321017931 22936:1 66890:1 94206:1 111426:1 121319:1 122755:1 #
-0.091002117255878547941172485025163 8095:1 66890:1 71503:1 94206:1 121319:1 122755:1 #
-0.10747254796647169594603354880746 47556:1 66890:1 94206:1 115541:1 121319:1 122755:1 #
0.59706938057381564455283751158277 24085:1 59611:1 81969:1 84721:1 96075:1 110105:1 122717:1 140778:1 #
0.59706938057381597761974489912973 75581:1 81969:1 84721:1 90810:1 96075:1 110105:1 122717:1 140778:1 #
0.75819509773285165277201258504647 454:1 25706:1 36254:1 49699:1 96075:1 110105:1 122717:1 140778:1 #
0.22487139067472886044818380923971 35913:1 83367:1 88344:1 96075:1 110105:1 122717:1 132204:1 140778:1 #
0.5970547952583361572820308538212 34353:1 68459:1 81969:1 84721:1 96075:1 110105:1 122717:1 140778:1 #
-0.4021313760531505798745399715699 81969:1 84721:1 96075:1 110105:1 111277:1 122717:1 129675:1 140778:1 #
-0.40293061942618230153456693187763 50060:1 81969:1 84721:1 96075:1 110105:1 119358:1 122717:1 140778:1 #
-0.42817624647017826777783966463176 45944:1 81969:1 84721:1 93105:1 96075:1 110105:1 122717:1 140778:1 #
1 17368:1 66890:1 94206:1 104257:1 105514:1 121319:1 #
-0.29857521177076762342039728537202 17368:1 66890:1 94206:1 104257:1 105514:1 121319:1 #
0.59706938057381586659744243661407 10749:1 81969:1 84721:1 96075:1 110105:1 122717:1 132920:1 140778:1 #
0.90066201953682800684930498391623 28716:1 73708:1 81969:1 84721:1 96075:1 110105:1 139757:1 140778:1 #
0.71848210285975211419895458675455 1431:1 3234:1 81969:1 84721:1 96075:1 110105:1 138432:1 140778:1 #
0.71844077968747965812212896707933 1431:1 1441:1 42730:1 81969:1 84721:1 96075:1 110105:1 140778:1 #
-0.44522111171913092420027169282548 81969:1 84721:1 90080:1 93861:1 96075:1 110105:1 139750:1 140778:1 #
-0.37690690625974715421975247409137 56985:1 81969:1 84721:1 88891:1 96075:1 110105:1 139750:1 140778:1 #
-0.37451348268959860909887993329903 30862:1 48883:1 81969:1 84721:1 96075:1 110105:1 139750:1 140778:1 #
0.62133713425763315019167976060999 28368:1 38093:1 68740:1 72042:1 88873:1 121319:1 139747:1 140778:1 #
0.17857398463565921087337073913659 8713:1 53912:1 78406:1 81687:1 88873:1 96194:1 121319:1 140772:1 #
-0.90052304677439853897169541596668 4937:1 36514:1 75855:1 104257:1 105597:1 121319:1 #
-0.10912116868507540368149477671977 25308:1 88525:1 88860:1 96980:1 121319:1 133437:1 139757:1 140781:1 #
-0.11500792030620719808009511098135 75003:1 88860:1 96980:1 120902:1 121319:1 133437:1 139757:1 140781:1 #
-0.62107571072863743122383084482863 30725:1 31452:1 66890:1 94206:1 121319:1 122755:1 #
1 56985:1 81969:1 84721:1 88891:1 96075:1 110105:1 139750:1 140778:1 #
0.62491092553337146409120350654121 74683:1 81969:1 84721:1 96075:1 110105:1 127638:1 139750:1 140778:1 #
0.62491092553337046489048134390032 71832:1 81969:1 84721:1 96075:1 110105:1 112062:1 139750:1 140778:1 #
0.62491092553337035386817888138467 46536:1 75244:1 81969:1 84721:1 96075:1 110105:1 139750:1 140778:1 #
0.62492817763623720317411880387226 17013:1 41291:1 81969:1 84721:1 96075:1 110105:1 139750:1 140778:1 #
-0.84139047581900849870351066783769 56985:1 81969:1 84721:1 88891:1 96075:1 110105:1 139750:1 140778:1 #
0.13298754655390604417775080037245 41436:1 62912:1 86259:1 88860:1 103670:1 121319:1 139748:1 140781:1 #
0.10337836413718348715917727531632 24749:1 78410:1 88870:1 104576:1 121319:1 122717:1 124324:1 140784:1 #
-0.99995010434507813901205963702523 17368:1 66890:1 94206:1 104257:1 105514:1 121319:1 #
0.62492817763623842441944589154446 15878:1 81969:1 84721:1 96075:1 110105:1 126908:1 139750:1 140778:1 #
0.9998068145169746179234948613157 78824:1 81969:1 84721:1 96075:1 110105:1 136512:1 139750:1 140778:1 #
1 34200:1 81969:1 84721:1 96075:1 108405:1 110105:1 139750:1 140778:1 #
-0.39313583665678952794308997908956 67809:1 81969:1 84721:1 96075:1 110105:1 139747:1 140394:1 140778:1 #
-0.39276344890415493260604762326693 10629:1 17953:1 81969:1 84721:1 96075:1 110105:1 139747:1 140778:1 #
-0.39300501554322342379066412831889 14932:1 36038:1 81969:1 84721:1 96075:1 110105:1 139747:1 140778:1 #
0.070141304987285185701395562318794 19821:1 60432:1 88870:1 90329:1 96075:1 108239:1 122706:1 140779:1 #
0.60636991793379391157969848791254 4255:1 7174:1 81969:1 84721:1 96075:1 110105:1 139747:1 140778:1 #
0.60639646145360137641233677641139 38430:1 81969:1 84721:1 96075:1 110105:1 135446:1 139747:1 140778:1 #
0.60639646145360093232312692634878 81969:1 84721:1 91710:1 96075:1 110105:1 125981:1 139747:1 140778:1 #
0.60639646145360226459075647653663 17798:1 25993:1 81969:1 84721:1 96075:1 110105:1 139747:1 140778:1 #
0.22695593995428034461703248325648 7195:1 81969:1 82944:1 84721:1 96075:1 110105:1 139747:1 140778:1 #
-0.35773515909202147078360667364905 20895:1 81969:1 84721:1 95611:1 96075:1 110105:1 139747:1 140778:1 #
-0.3930621268878239371602489882207 67871:1 81969:1 84721:1 95187:1 96075:1 110105:1 139747:1 140778:1 #
-0.39306212688782277142607313180633 68368:1 72771:1 81969:1 84721:1 96075:1 110105:1 139747:1 140778:1 #
-0.39305561034527142227901208570984 4604:1 13277:1 81969:1 84721:1 96075:1 110105:1 139747:1 140778:1 #
-0.027417737261949019084150691583091 20723:1 78113:1 81969:1 84721:1 96075:1 110105:1 139747:1 140778:1 #
0.60639675212884536215085518051637 729:1 81969:1 84721:1 96075:1 110105:1 112365:1 139747:1 140778:1 #
0.60638851633002655017179449714604 29923:1 81969:1 84721:1 95881:1 96075:1 110105:1 139747:1 140778:1 #
0.60638851633002610608258464708342 33136:1 76274:1 81969:1 84721:1 96075:1 110105:1 139747:1 140778:1 #
-0.39284946519080443660953960716142 24139:1 62152:1 81969:1 84721:1 96075:1 110105:1 139747:1 140778:1 #
-0.45742561570323098107948567303538 30076:1 47945:1 81969:1 84721:1 96075:1 110105:1 139747:1 140778:1 #
-0.39285064504297556586820405755134 39847:1 47076:1 81969:1 84721:1 96075:1 110105:1 139747:1 140778:1 #
-0.39305561034527153330131454822549 59002:1 81969:1 84721:1 96075:1 110105:1 115271:1 139747:1 140778:1 #
0.64383027597192898916489411931252 66890:1 78360:1 102855:1 #
-0.55633391234597973085129751780187 15623:1 25648:1 69272:1 110113:1 140781:1 #
-0.3931240625306618996503971175116 81969:1 84721:1 95955:1 96075:1 110105:1 139747:1 140778:1 141139:1 #
-0.39280070907828451565180216675799 1985:1 66593:1 81969:1 84721:1 96075:1 110105:1 139747:1 140778:1 #
-0.39306212688782621311744946979161 81969:1 84721:1 95578:1 96075:1 110105:1 139747:1 140778:1 142334:1 #
-0.39306069155402467707460800738772 81969:1 84721:1 96075:1 97038:1 110105:1 137565:1 139747:1 140778:1 #
-0.41954931752471791295278080724529 71151:1 81969:1 84721:1 96075:1 104563:1 110105:1 139747:1 140778:1 #
0.10350571276123898822874025427154 27907:1 46902:1 75554:1 78407:1 110113:1 121319:1 122717:1 140781:1 #
-0.03044967282428061652876927212219 1431:1 37518:1 96075:1 104693:1 110106:1 121618:1 134724:1 140785:1 #
0.01578893039068968509597290506008 32726:1 53912:1 73099:1 78406:1 88860:1 114327:1 121319:1 140781:1 #
-0.22454769734942303660574225432356 8996:1 48543:1 53912:1 84109:1 88870:1 106851:1 121319:1 140783:1 #
-0.11694231566737406380340758005332 10692:1 29128:1 53912:1 88873:1 102007:1 121319:1 133986:1 140779:1 #
-0.0040379103051859967232761761124493 6299:1 76773:1 88873:1 113321:1 140778:1 #
0.075146352392687867927101308396232 81969:1 84721:1 96075:1 100725:1 110105:1 122755:1 140778:1 142189:1 #
0.94855200584374610439652997229132 81969:1 84721:1 89533:1 96075:1 110105:1 122755:1 131241:1 140778:1 #
-1 43043:1 83367:1 88344:1 89533:1 96075:1 110105:1 122755:1 140778:1 #
-0.2268669750095151371738211310003 56985:1 81969:1 84721:1 88891:1 96075:1 110105:1 139750:1 140778:1 #
1 6316:1 78363:1 88870:1 90329:1 140779:1 #
0.24729035345963307213068560486136 13902:1 33103:1 110102:1 119625:1 121319:1 139747:1 140779:1 141884:1 #
0.1104442729618426849436119141501 21248:1 72828:1 84505:1 88870:1 121319:1 130207:1 139746:1 140783:1 #
0.14455966665889302680270134260354 39285:1 52961:1 68578:1 88870:1 98606:1 121319:1 139746:1 140783:1 #
0.32486028170737635267784071402275 88870:1 102830:1 105294:1 108896:1 114101:1 121319:1 139747:1 140781:1 #
-0.30893052789329766838477553392295 8624:1 22285:1 64975:1 88870:1 90329:1 121319:1 139757:1 140779:1 #
-0.33034584395078148144619945014711 6316:1 78363:1 88870:1 90329:1 140779:1 #
-0.022725345322433941619433284131446 1431:1 47110:1 75959:1 91915:1 96075:1 110106:1 122342:1 140781:1 #
-0.76420959966836610188778422525502 6316:1 78363:1 88870:1 90329:1 140779:1 #
-0.59312800940142296202139959859778 71681:1 81969:1 84721:1 96075:1 110105:1 135682:1 139746:1 140778:1 #
-0.72398663362874904336763393075671 26453:1 42634:1 81969:1 84721:1 96075:1 110105:1 139746:1 140778:1 #
-0.72287520846905806148896544982563 41083:1 73588:1 81969:1 84721:1 96075:1 110105:1 139746:1 140778:1 #
1 34577:1 76462:1 78363:1 88873:1 140778:1 #
0.891248447746029848204329937289 88870:1 91031:1 117647:1 140784:1 143190:1 #
-0.99982162644121164163379944511689 28065:1 40253:1 68925:1 88870:1 96075:1 134221:1 139747:1 140781:1 #
0.10135646038998943896380922069511 20573:1 81969:1 84721:1 96075:1 96684:1 110105:1 139746:1 140778:1 #
0.40630480884203445945956900686724 16601:1 81969:1 84721:1 90617:1 96075:1 110105:1 139746:1 140778:1 #
1 26879:1 75975:1 81969:1 84721:1 96075:1 110105:1 139746:1 140778:1 #
0.12178645563309190014145144687063 1382:1 81969:1 84721:1 96075:1 101400:1 110105:1 139746:1 140778:1 #
0.40631506581887588680501721682958 23894:1 81969:1 84721:1 89871:1 96075:1 110105:1 139746:1 140778:1 #
-0.8127335422516748231203109753551 78360:1 88873:1 94132:1 128627:1 140780:1 #
-0.68619941564911091091971684363671 34892:1 81554:1 89075:1 110105:1 140784:1 #
-0.59486182793644348798522969445912 78363:1 110851:1 122666:1 #
-0.53454020294712556449212570441887 25953:1 34892:1 110105:1 117647:1 140784:1 #
0.23241002675710492608729396124545 34968:1 79850:1 88870:1 96075:1 107017:1 134366:1 139747:1 140778:1 #
0.10142330538226572433924133065375 3701:1 23505:1 40253:1 49839:1 96075:1 110101:1 139747:1 140778:1 #
0.11569255418569218685220789666346 675:1 88870:1 90709:1 96075:1 123342:1 123458:1 139747:1 140778:1 #
-0.030455144260713992027111984839394 1431:1 85721:1 96075:1 110106:1 117091:1 121618:1 134724:1 140785:1 #
-0.33189604663256222494283065316267 46109:1 46161:1 51121:1 80105:1 88870:1 96075:1 139747:1 140778:1 #
-0.55804004544862939596328033076134 1632:1 20705:1 47064:1 96075:1 110101:1 128716:1 139748:1 140778:1 #
-0.39310308633859752935890696790011 60643:1 81969:1 84721:1 91806:1 96075:1 110105:1 139747:1 140778:1 #
-0.39305280306646206422982459116611 49321:1 81969:1 84721:1 91912:1 96075:1 110105:1 139747:1 140778:1 #
-0.39305280306646128707370735355653 62894:1 81969:1 84721:1 96075:1 110105:1 139747:1 140778:1 143131:1 #
1 78361:1 108398:1 110105:1 128302:1 140780:1 #
0.1260101828486606401202863025901 43925:1 46948:1 53912:1 79560:1 88860:1 113598:1 121319:1 140781:1 #
-1 78361:1 108398:1 110105:1 128302:1 140780:1 #
0.55837625106294341836843386772671 33946:1 81969:1 84721:1 96075:1 104470:1 110105:1 139748:1 140778:1 #
-0.44100387467348495240671013561951 31222:1 81969:1 84721:1 96075:1 110105:1 117680:1 139748:1 140778:1 #
-0.4605764300276414813239966861147 65002:1 81969:1 84721:1 96075:1 110105:1 129268:1 139748:1 140778:1 #
-0.80449519205356512241422706210869 18786:1 81969:1 84721:1 96075:1 110105:1 128206:1 139748:1 140778:1 #
-0.47541442623248070242780727312493 33276:1 70243:1 81969:1 84721:1 96075:1 110105:1 139748:1 140778:1 #
-0.44112747254336209801195423096942 2537:1 57406:1 81969:1 84721:1 96075:1 110105:1 139748:1 140778:1 #
1 78360:1 105639:1 110106:1 124867:1 140780:1 #
-0.030415657501927879924341624473527 1431:1 18251:1 96075:1 110106:1 120387:1 121618:1 134724:1 140785:1 #
0.55840101492950799944026130106067 70207:1 81969:1 84721:1 96075:1 110105:1 118507:1 139748:1 140778:1 #
0.55838369247684482843396835960448 60184:1 81969:1 84721:1 96075:1 110105:1 133408:1 139748:1 140778:1 #
0.40630480884203323821424191919505 17663:1 33917:1 81969:1 84721:1 96075:1 110105:1 139746:1 140778:1 #
0.73978608910053389458028050285066 81969:1 84721:1 96075:1 106698:1 110105:1 122064:1 139746:1 140778:1 #
0.32490696548554953704268655201304 1499:1 81969:1 84721:1 91230:1 96075:1 110105:1 139746:1 140778:1 #
-1 26879:1 75975:1 81969:1 84721:1 96075:1 110105:1 139746:1 140778:1 #
-0.60027750654510092509497098944848 78562:1 81969:1 84721:1 96075:1 103757:1 110105:1 139746:1 140778:1 #
-0.60112278212703129653959877032321 51915:1 65261:1 81969:1 84721:1 96075:1 110105:1 139746:1 140778:1 #
-0.2169921933854448703460349179295 16605:1 81969:1 84721:1 85831:1 96075:1 110105:1 139746:1 140778:1 #
0.55281399249482010560541311861016 36734:1 72729:1 88819:1 96309:1 110105:1 121319:1 139747:1 140780:1 #
-1 41275:1 78361:1 88860:1 104761:1 140782:1 #
0.38456974175525010517517898733786 46731:1 73654:1 81969:1 84721:1 96075:1 110105:1 139746:1 140778:1 #
0.40630480884203556968259363202378 43530:1 78750:1 81969:1 84721:1 96075:1 110105:1 139746:1 140778:1 #
0.40631506581887627538307583563437 81969:1 84721:1 93827:1 96075:1 110105:1 138241:1 139746:1 140778:1 #
0.40630480884203573621604732579726 78651:1 81969:1 82835:1 84721:1 96075:1 110105:1 139746:1 140778:1 #
-0.44106104709816262854360502387863 11774:1 23380:1 81969:1 84721:1 96075:1 110105:1 139748:1 140778:1 #
-0.40261283119364654758953747659689 51359:1 78486:1 81969:1 84721:1 96075:1 110105:1 139748:1 140778:1 #
-0.51161202082734924534435094756191 79680:1 81969:1 84721:1 96075:1 110105:1 139296:1 139748:1 140778:1 #
-0.44114408797380066928894848388154 21487:1 66244:1 81969:1 84721:1 96075:1 110105:1 139748:1 140778:1 #
0.54781686869677748141782558377599 75855:1 78361:1 135333:1 #
0.11065572427927493348587262289584 1431:1 3655:1 7481:1 65480:1 72972:1 88873:1 96075:1 140779:1 #
-0.097317856043967435053509973386099 1431:1 2896:1 96075:1 102686:1 110105:1 115847:1 128657:1 140778:1 #
-0.8609310522136541798943198955385 68060:1 78361:1 101281:1 110102:1 140781:1 #
0.14030280868350175627057296878775 19821:1 44095:1 88870:1 90329:1 96075:1 114791:1 139750:1 140779:1 #
-0.076497851487607015918968045298243 1431:1 2373:1 77497:1 84392:1 96075:1 110106:1 140781:1 142920:1 #
0.63316891878037928620415186742321 53912:1 59250:1 75793:1 81969:1 84721:1 96075:1 110105:1 140778:1 #
0.1804805823364969696864790194013 32593:1 53912:1 81969:1 84721:1 96075:1 110105:1 140778:1 143185:1 #
-0.44502049755963812849302030372201 81969:1 83240:1 84721:1 96075:1 110105:1 129074:1 139750:1 140778:1 #
-0.37451348268960044096687056480732 1365:1 17733:1 81969:1 84721:1 96075:1 110105:1 139750:1 140778:1 #
-0.37450848061707170399969868412882 11241:1 17084:1 81969:1 84721:1 96075:1 110105:1 139750:1 140778:1 #
-0.37451348268959994136650948348688 49476:1 76666:1 81969:1 84721:1 96075:1 110105:1 139750:1 140778:1 #
0.049664126240810374524059511713858 42223:1 51010:1 53226:1 79155:1 110102:1 121319:1 139748:1 140782:1 #
0.094723199152372289377765923745756 49232:1 84656:1 98216:1 109035:1 110102:1 121319:1 122717:1 140782:1 #
0.22656327559342495647776161149523 2202:1 62494:1 64783:1 88870:1 121319:1 138927:1 139748:1 140782:1 #
0.036424868109329253118566782632115 19920:1 110102:1 119128:1 137122:1 140781:1 #
0.86285075311356151939179426335613 15777:1 69736:1 74267:1 74843:1 96075:1 110106:1 122717:1 140781:1 #
-1 53912:1 69477:1 75855:1 90281:1 96075:1 111713:1 #
-1 53912:1 59250:1 67579:1 75855:1 90281:1 96075:1 #
-0.44268398143484072315700927902071 62695:1 78220:1 81969:1 84721:1 96075:1 110105:1 122717:1 140778:1 #
-0.40252358266783516693720912371646 25440:1 81969:1 84721:1 84852:1 96075:1 110105:1 122717:1 140778:1 #
-0.40248364249874191145295299065765 11839:1 18620:1 81969:1 84721:1 96075:1 110105:1 122717:1 140778:1 #
-0.40245747755152644353771052010416 25709:1 79752:1 81969:1 84721:1 96075:1 110105:1 122717:1 140778:1 #
0.082794632378086707724662574037211 52166:1 69459:1 70894:1 88703:1 88873:1 96075:1 139757:1 140778:1 #
-0.040806634112254082380477626657012 50216:1 88870:1 106950:1 113840:1 121319:1 125159:1 139757:1 140780:1 #
-0.20940403939159082935539402114955 15008:1 54958:1 99712:1 121319:1 125159:1 139757:1 #
0.067578675650519656747938768148742 9739:1 72036:1 78407:1 104126:1 110101:1 121319:1 122717:1 140782:1 #
-0.093243306611549725548826472731889 38946:1 88873:1 117647:1 124650:1 140778:1 #
-0.05768711090827573911843373366537 1431:1 23990:1 68720:1 86125:1 96075:1 110106:1 133809:1 140782:1 #
0.0014188607468921172506670647095461 1431:1 59025:1 88860:1 96075:1 124988:1 129029:1 136416:1 140778:1 #
-0.37455342870244540121049681147269 7283:1 18091:1 81969:1 84721:1 96075:1 110105:1 139750:1 140778:1 #
-0.87453149504925398183274865004933 59906:1 81969:1 84721:1 96075:1 110105:1 139750:1 140778:1 140817:1 #
-0.37453149504925470347771465640108 3853:1 81969:1 84721:1 96075:1 110105:1 122684:1 139750:1 140778:1 #
0.98940172003444626369628167594783 2715:1 39785:1 65577:1 110105:1 121319:1 122620:1 139747:1 140779:1 #
0.24483036594631241156250212043233 36214:1 52203:1 81843:1 88870:1 121319:1 121697:1 122706:1 140780:1 #
0.21445711857329871619093353274366 78409:1 96626:1 110114:1 115512:1 121319:1 122717:1 130490:1 140779:1 #
1 78361:1 108398:1 110105:1 128302:1 140780:1 #
-0.1106114199606390291474866671706 6328:1 78361:1 88870:1 90329:1 140779:1 #
-0.39305561034527358721391010476509 19799:1 45027:1 81969:1 84721:1 96075:1 110105:1 139747:1 140778:1 #
-0.3931030863385944207344380174618 64167:1 81969:1 84721:1 86655:1 96075:1 110105:1 139747:1 140778:1 #
-0.39306380460669054777156361524248 4782:1 46957:1 81969:1 84721:1 96075:1 110105:1 139747:1 140778:1 #
-0.3931141917184315937028316056967 4501:1 34192:1 81969:1 84721:1 96075:1 110105:1 139747:1 140778:1 #
0.1128709916415264191691392170469 4021:1 19821:1 88870:1 90329:1 96075:1 96999:1 122717:1 140779:1 #
0.11287099164152596120214155916983 19044:1 19821:1 88870:1 90329:1 96075:1 122717:1 133405:1 140779:1 #
0.11287099164152565589080978725178 927:1 19821:1 84441:1 88870:1 90329:1 96075:1 122717:1 140779:1 #
0.41916002051581208176500581430446 5715:1 19821:1 71011:1 88870:1 90329:1 96075:1 122717:1 140779:1 #
0.30841539446351307063309832301456 2174:1 81969:1 84721:1 96075:1 104257:1 110105:1 138073:1 140778:1 #
0.61045829002263096718650103866821 14357:1 73895:1 81969:1 84721:1 96075:1 110105:1 139752:1 140778:1 #
0.3866786119130912746655326373002 1239:1 78376:1 81969:1 84721:1 96075:1 110105:1 139752:1 140778:1 #
0.61041373350872263348065871468862 13665:1 81969:1 84721:1 89992:1 96075:1 110105:1 139752:1 140778:1 #
-0.61257805774857243541475781967165 26225:1 71011:1 81969:1 84721:1 96075:1 110105:1 122717:1 140778:1 #
-0.38901163414851885891110327975184 7581:1 56759:1 81969:1 84721:1 96075:1 110105:1 139752:1 140778:1 #
-0.45487082470574935477714006992755 81969:1 84721:1 96075:1 110105:1 125786:1 139752:1 140753:1 140778:1 #
-0.38901163414851724908771757327486 81969:1 84721:1 96075:1 105148:1 110105:1 139752:1 140286:1 140778:1 #
0.075268964731424498060263772458711 524:1 15974:1 78361:1 88870:1 140784:1 #
-1 88870:1 91031:1 117647:1 140784:1 143190:1 #
-0.5440056776322180764893232662871 1431:1 12041:1 57757:1 73832:1 88870:1 96075:1 132035:1 140780:1 #
-0.099895678548655830741864747324144 19821:1 67403:1 88870:1 90329:1 96075:1 105638:1 122706:1 140779:1 #
0.61041373350872329961447348978254 69158:1 81969:1 84721:1 91966:1 96075:1 110105:1 139752:1 140778:1 #
0.48577564209393869765207796262985 1431:1 17210:1 61381:1 81969:1 84721:1 96075:1 110105:1 140778:1 #
0.71848210285975333544428167442675 1431:1 52764:1 81969:1 84721:1 96075:1 110105:1 111054:1 140778:1 #
0.7184821028597520031766521242389 1431:1 2455:1 8696:1 81969:1 84721:1 96075:1 110105:1 140778:1 #
-0.28090341842818822293281755264616 1431:1 68336:1 81969:1 84721:1 91632:1 96075:1 110105:1 140778:1 #
-0.056295070299135954727809405540029 1431:1 1911:1 77704:1 79386:1 96075:1 110106:1 136259:1 140781:1 #
-0.28090268126163708828357812308241 1431:1 42520:1 81969:1 84721:1 96075:1 103108:1 110105:1 140778:1 #
-0.53332945594752911855351840131334 1431:1 81969:1 84721:1 88144:1 96075:1 110105:1 138245:1 140778:1 #
-0.49287184331667505121643557686184 19821:1 36810:1 54397:1 88870:1 90329:1 96075:1 139746:1 140779:1 #
0.71848210285975533384572599970852 1431:1 23604:1 59235:1 81969:1 84721:1 96075:1 110105:1 140778:1 #
1 839:1 1431:1 21861:1 81969:1 84721:1 96075:1 110105:1 140778:1 #
1 1431:1 34994:1 81969:1 84721:1 96075:1 110105:1 135804:1 140778:1 #
0.71848210285975400157809644952067 1431:1 54725:1 81969:1 84721:1 96075:1 110105:1 119060:1 140778:1 #
1 1431:1 8098:1 81969:1 84721:1 96075:1 110105:1 138204:1 140778:1 #
-0.28090341842818755679900277755223 1431:1 4837:1 49424:1 81969:1 84721:1 96075:1 110105:1 140778:1 #
-0.28091684608327066596800136721868 1431:1 38648:1 81969:1 84721:1 96075:1 110105:1 137608:1 140778:1 #
-0.28090268126163836504005644201243 1431:1 6265:1 28062:1 81969:1 84721:1 96075:1 110105:1 140778:1 #
-0.28090341842818855599972494019312 1431:1 68387:1 81969:1 84721:1 91609:1 96075:1 110105:1 140778:1 #
-0.33354531300563045048690469229768 1431:1 25958:1 81969:1 84721:1 96075:1 110105:1 125932:1 140778:1 #
0.71844755715730301837140814313898 1431:1 35820:1 81969:1 84721:1 96075:1 110105:1 130008:1 140778:1 #
0.71853077534085585398315743077546 1431:1 14088:1 52201:1 81969:1 84721:1 96075:1 110105:1 140778:1 #
1 1431:1 26712:1 69290:1 81969:1 84721:1 96075:1 110105:1 140778:1 #
1 1431:1 81969:1 84721:1 96075:1 110105:1 139448:1 140043:1 140778:1 #
0.71844755715730035383614904276328 1431:1 44868:1 81969:1 84721:1 92375:1 96075:1 110105:1 140778:1 #
-0.28084171618387243629655358745367 1431:1 38961:1 62026:1 81969:1 84721:1 96075:1 110105:1 140778:1 #
-0.28090341842818844497742247767746 1431:1 81969:1 84193:1 84721:1 96075:1 110105:1 112188:1 140778:1 #
-0.28090268126163664419436827301979 1431:1 12840:1 55097:1 81969:1 84721:1 96075:1 110105:1 140778:1 #
-0.28090341842818877804432986522443 1431:1 4679:1 16607:1 81969:1 84721:1 96075:1 110105:1 140778:1 #
1 19821:1 85831:1 88870:1 90329:1 96075:1 121284:1 139746:1 140779:1 #
-1 19821:1 85831:1 88870:1 90329:1 96075:1 121284:1 139746:1 140779:1 #
-0.88712900835847685598878342716489 6267:1 19821:1 78385:1 88870:1 90329:1 96075:1 122717:1 140779:1 #
0.8743950994404656729130920211901 88344:1 97209:1 110105:1 126686:1 140778:1 #
1 1431:1 20852:1 21233:1 81969:1 84721:1 96075:1 110105:1 140778:1 #
1 1431:1 46696:1 47642:1 81969:1 84721:1 96075:1 110105:1 140778:1 #
0.66092108765746138132612941262778 1431:1 7059:1 81969:1 84721:1 84925:1 96075:1 110105:1 140778:1 #
-0.32339513731238572757931137857668 1431:1 2188:1 81969:1 84721:1 96075:1 110105:1 138067:1 140778:1 #
-0.28094523459161024891983515772154 1431:1 47544:1 77167:1 81969:1 84721:1 96075:1 110105:1 140778:1 #
-0.28092777316273981336181009282882 1431:1 18659:1 81969:1 84721:1 96075:1 110105:1 126577:1 140778:1 #
-0.6659590188395642096352844419016 1431:1 81969:1 84721:1 95651:1 96075:1 110105:1 129410:1 140778:1 #
-0.97748887376617843436577004467836 19821:1 85252:1 88870:1 90329:1 96075:1 122706:1 129698:1 140779:1 #
0.71844755715730246325989583056071 1431:1 51550:1 62131:1 81969:1 84721:1 96075:1 110105:1 140778:1 #
1 1431:1 4346:1 81969:1 84721:1 96075:1 110105:1 123059:1 140778:1 #
0.84312425952994585198752020005486 1431:1 39098:1 49297:1 81969:1 84721:1 96075:1 110105:1 140778:1 #
0.71848659281312732272084531359724 1431:1 1539:1 42483:1 81969:1 84721:1 96075:1 110105:1 140778:1 #
0.71846435219642246217119918583194 1431:1 10069:1 81969:1 84721:1 96075:1 96158:1 110105:1 140778:1 #
-0.38287811852263453626932232509716 1431:1 11357:1 81969:1 84721:1 96075:1 110105:1 136970:1 140778:1 #
-0.28090830991540644001602800017281 1431:1 33933:1 52288:1 81969:1 84721:1 96075:1 110105:1 140778:1 #
-0.2815524428427045311451593079255 1431:1 17088:1 81969:1 84721:1 96075:1 108054:1 110105:1 140778:1 #
-0.72937346838060290732386192757986 37773:1 48010:1 75963:1 96075:1 96799:1 110114:1 139746:1 140778:1 #
0.71846435219642224012659426080063 1431:1 4099:1 25656:1 81969:1 84721:1 96075:1 110105:1 140778:1 #
0.71844077968747954709982650456368 1431:1 66120:1 81057:1 81969:1 84721:1 96075:1 110105:1 140778:1 #
0.71856115580722890179288242507027 1431:1 65850:1 69848:1 81969:1 84721:1 96075:1 110105:1 140778:1 #
0.8339123774029377766936477200943 1431:1 11660:1 81969:1 84721:1 96075:1 108497:1 110105:1 140778:1 #
0.49090262379474464138340294994123 1431:1 15227:1 44913:1 81969:1 84721:1 96075:1 110105:1 140778:1 #
-0.28096090766892062307036326274101 1431:1 81969:1 84721:1 96075:1 101347:1 110105:1 110508:1 140778:1 #
-0.28090268126163731032818304811371 1431:1 19913:1 81969:1 84721:1 84786:1 96075:1 110105:1 140778:1 #
-0.28091684608327088801260629224998 1431:1 65163:1 81969:1 84721:1 96075:1 110105:1 132376:1 140778:1 #
-0.28092777316274186727440564936842 1431:1 62634:1 81969:1 84721:1 96075:1 110105:1 128411:1 140778:1 #
-0.65542046785820651244591772410786 19821:1 51359:1 88870:1 90329:1 96075:1 109419:1 139748:1 140779:1 #
1 1431:1 42510:1 96075:1 110106:1 117304:1 133304:1 137769:1 140781:1 #
0.96903948870901734924387938008294 1431:1 35283:1 46136:1 96075:1 110106:1 121618:1 134724:1 140785:1 #
0.96899391969708670302452446776442 1431:1 50580:1 96075:1 99925:1 110106:1 121618:1 134724:1 140785:1 #
0.96900129902209630738951773309964 405:1 1431:1 48475:1 96075:1 110106:1 121618:1 134724:1 140785:1 #
1 1431:1 46696:1 54610:1 81561:1 96075:1 110106:1 132309:1 140782:1 #
-0.31665119319097145833552531257737 1431:1 15777:1 26712:1 35399:1 69736:1 96075:1 110106:1 140781:1 #
-0.23026281160850237128556727839168 1431:1 15777:1 28187:1 69736:1 96075:1 110106:1 139448:1 140781:1 #
-0.014915571344067851330961183009549 1431:1 15777:1 69736:1 80010:1 96075:1 110106:1 140781:1 143237:1 #
-0.035556088717170454549520997034051 1431:1 2219:1 6428:1 96075:1 110105:1 112507:1 135831:1 140778:1 #
0.029844252617355744583438337258485 1431:1 35338:1 47143:1 65504:1 68509:1 88870:1 96075:1 140779:1 #
0.03056317105221653326885267176749 1389:1 21672:1 24295:1 45195:1 88873:1 96075:1 139748:1 140779:1 #
-0.081049287699625299774552900089475 1431:1 18788:1 73925:1 86702:1 96075:1 110106:1 111143:1 140780:1 #
-0.89436066595966345893486959539587 19821:1 36810:1 54397:1 88870:1 90329:1 96075:1 139746:1 140779:1 #
-0.96491682989384164326196469119168 1431:1 19821:1 46696:1 68581:1 88870:1 90329:1 96075:1 140779:1 #
0.55473756328444723262549587161629 26527:1 34749:1 81969:1 84721:1 96075:1 110105:1 122706:1 140778:1 #
0.55466038614128365669131426329841 81969:1 84721:1 96075:1 110105:1 122681:1 122706:1 139728:1 140778:1 #
-0.11996540565054268634437306673135 50228:1 96075:1 110106:1 121618:1 122717:1 134683:1 134724:1 140785:1 #
-0.29156919059348324063662971639133 16605:1 81969:1 84721:1 85831:1 96075:1 110105:1 139746:1 140778:1 #
-0.051654384206834200177205218551535 1431:1 16151:1 47022:1 96075:1 97199:1 108197:1 110105:1 140778:1 #
-0.057670897768057970134147893759291 1431:1 23990:1 46827:1 68720:1 94781:1 96075:1 110106:1 140782:1 #
0.060445469684842982605044170441033 1431:1 2037:1 33298:1 88860:1 97191:1 107113:1 121319:1 140782:1 #
0.079536362705125152050555925598019 1431:1 7424:1 48600:1 50993:1 88870:1 96075:1 116486:1 140779:1 #
0.031280968276427442709142212606821 4590:1 58404:1 77543:1 88870:1 96075:1 112422:1 122706:1 140783:1 #
-0.74570878974397292182629826129414 47912:1 76673:1 78361:1 88870:1 140782:1 #
-0.32731606066473506455594133512932 1431:1 88870:1 96075:1 113833:1 115187:1 132411:1 139463:1 140779:1 #
-0.38270705745163313693524287373293 1431:1 5044:1 16493:1 88870:1 96075:1 113833:1 115187:1 140779:1 #
-0.28102541219548116124826719897101 1431:1 24719:1 35125:1 81969:1 84721:1 96075:1 110105:1 140778:1 #
-0.21584709866211307383032647067012 1431:1 53276:1 81969:1 84721:1 96075:1 110105:1 113587:1 140778:1 #
-0.28091684608327038841224521092954 1431:1 36631:1 37674:1 81969:1 84721:1 96075:1 110105:1 140778:1 #
-0.72664700863261566521345002911403 55956:1 96075:1 106698:1 110105:1 116480:1 135288:1 139746:1 140778:1 #
0.14367830140646015157912529502937 1431:1 2037:1 38626:1 109677:1 110114:1 121319:1 123345:1 140781:1 #
0.14304487678246655124603137210215 1431:1 2037:1 21335:1 22018:1 110114:1 121136:1 121319:1 140780:1 #
0.52774505537593063841939056146657 47023:1 69459:1 88873:1 93786:1 96075:1 121708:1 139757:1 140779:1 #
0.042005401410569243036974285132601 26642:1 98949:1 110114:1 117232:1 120628:1 121319:1 122717:1 140783:1 #
-0.51700756121125246433933853040799 75003:1 83236:1 87189:1 100109:1 121319:1 139757:1 #
-0.84959636619739098417625200454495 1431:1 15227:1 28999:1 37113:1 88873:1 96075:1 140780:1 142371:1 #
0.43024420505608484965875959460391 39143:1 69472:1 96075:1 110105:1 116480:1 135288:1 139746:1 140778:1 #
0.55471263082323185589217473534518 63570:1 73033:1 96075:1 110105:1 116480:1 122755:1 135288:1 140778:1 #
-0.64644905066221591827257952900254 11726:1 96075:1 110105:1 116480:1 122706:1 130738:1 135288:1 140778:1 #
-0.13388728082602172064774492810102 7140:1 59694:1 76206:1 87478:1 96075:1 110105:1 139746:1 140778:1 #
-0.16678715479784414488229060680169 9933:1 96075:1 101754:1 110105:1 125236:1 125667:1 139746:1 140778:1 #
-0.7779915974704397774175390622986 22413:1 23987:1 96075:1 110105:1 112010:1 125103:1 139746:1 140778:1 #
0.74867961091065204914940522940014 1431:1 8280:1 44647:1 96075:1 110106:1 112856:1 125491:1 140780:1 #
1 1431:1 10568:1 49280:1 63642:1 79134:1 96075:1 110106:1 140780:1 #
1 1431:1 10568:1 46755:1 79134:1 96075:1 110106:1 140780:1 142960:1 #
0.87582532779339361539427954994608 1431:1 20128:1 52653:1 86702:1 96075:1 98835:1 110106:1 140780:1 #
0.99492098290107533475890022600652 1431:1 45917:1 73925:1 84131:1 96075:1 110106:1 111143:1 140780:1 #
-0.024129512696220722228757082916673 1431:1 46755:1 79955:1 96075:1 105639:1 110106:1 130340:1 140780:1 #
-0.016802916461525960883927055533604 1431:1 66343:1 76655:1 79955:1 96075:1 105639:1 110106:1 140780:1 #
-0.016802916461525960883927055533604 1431:1 3058:1 79955:1 93226:1 96075:1 105639:1 110106:1 140780:1 #
-0.016802916461526047620100854373959 1431:1 38445:1 64765:1 79955:1 96075:1 105639:1 110106:1 140780:1 #
-0.016802916461525728430981274641454 795:1 1431:1 47189:1 79955:1 96075:1 105639:1 110106:1 140780:1 #
0.44010476933876191418804069144244 22413:1 23987:1 41926:1 96075:1 110105:1 123630:1 139750:1 140778:1 #
0.44010476933875991578659636616067 22413:1 23987:1 31428:1 55598:1 96075:1 110105:1 139750:1 140778:1 #
1 28486:1 78361:1 99042:1 110105:1 140778:1 #
-0.0178379162850770198178729231131 1431:1 20835:1 81719:1 89623:1 96075:1 110105:1 124504:1 140779:1 #
0.048320438825302389207472231191787 1431:1 10541:1 21057:1 69241:1 90868:1 96075:1 110105:1 140785:1 #
-0.030436717329027782735773044464622 1431:1 96075:1 104473:1 107246:1 110106:1 121618:1 134724:1 140785:1 #
-0.030414339670004380405954336197283 1431:1 19301:1 66680:1 96075:1 110106:1 121618:1 134724:1 140785:1 #
-0.057685390993496205025437006952416 1431:1 23990:1 68720:1 96075:1 98875:1 110106:1 124535:1 140782:1 #
0.9831970835384701290493580927432 1431:1 3075:1 79955:1 96075:1 105639:1 110106:1 124797:1 140780:1 #
0.35075695419403890573661897178681 47988:1 88982:1 96075:1 110106:1 115909:1 122717:1 137890:1 140780:1 #
-0.056230384695116666926573145701695 1431:1 68845:1 70709:1 77704:1 79386:1 96075:1 110106:1 140781:1 #
-0.0983915593789158465787281215853 4775:1 10568:1 79134:1 96075:1 110106:1 122717:1 137294:1 140780:1 #
-0.096727386880505278332620378023421 1431:1 36733:1 47110:1 75959:1 96075:1 100070:1 110106:1 140781:1 #
-0.029453315023905284747440802561869 1431:1 5171:1 24088:1 28492:1 43329:1 96075:1 110106:1 140781:1 #
-0.037834726594784776065871767514182 351:1 1431:1 5171:1 43329:1 96075:1 102426:1 110106:1 140781:1 #
-0.029453315023905673325499421366658 1431:1 5171:1 19145:1 43329:1 96075:1 106522:1 110106:1 140781:1 #
1 25690:1 40132:1 78361:1 88873:1 140778:1 #
0.29054776914983482249965618393617 35000:1 35397:1 88729:1 107057:1 110101:1 121319:1 139746:1 140778:1 #
1 40132:1 88873:1 117647:1 134298:1 140778:1 #
1 88873:1 111604:1 117647:1 127387:1 140778:1 #
0.30216738738385540141706542272004 24672:1 50845:1 84613:1 93492:1 100159:1 121319:1 139750:1 140778:1 #
-0.015692875638537370774905355119699 13129:1 13383:1 79703:1 96075:1 110105:1 122755:1 140779:1 142893:1 #
-0.030448715694963421340979436990892 1431:1 82060:1 96075:1 110106:1 121618:1 126311:1 134724:1 140785:1 #
-0.024441315504107271466827100425689 1431:1 5881:1 79955:1 95945:1 96075:1 105639:1 110106:1 140780:1 #
-0.0282688258504628225908916761 8178:1 66890:1 94206:1 99781:1 121319:1 122755:1 #
0.80137562999472455871341480815317 2373:1 84392:1 96075:1 101667:1 106491:1 110106:1 122717:1 140781:1 #
-0.49536394740769024158666411494778 1431:1 19821:1 85285:1 88870:1 90329:1 96075:1 138643:1 140779:1 #
-0.80570380757050497066984462435357 1431:1 19821:1 62256:1 88870:1 90329:1 96075:1 102131:1 140779:1 #
-0.76566249418047160890665736587835 1431:1 19821:1 52924:1 73431:1 88870:1 90329:1 96075:1 140779:1 #
-1 1431:1 19821:1 82511:1 88870:1 90329:1 96075:1 105061:1 140779:1 #
-0.63201470813836535533880578441313 1431:1 19821:1 88870:1 90039:1 90329:1 96075:1 128236:1 140779:1 #
-0.059884277488742893025275293439336 19059:1 64539:1 96075:1 107768:1 110106:1 110724:1 139747:1 140780:1 #
0.14462668926152238979554454090248 25737:1 31620:1 91179:1 118633:1 121319:1 122706:1 #
1 17368:1 66890:1 94206:1 104257:1 105514:1 121319:1 #
0.12384093993606111461236451987133 25901:1 89533:1 96075:1 110105:1 122755:1 123223:1 138431:1 140778:1 #
-1 33138:1 96075:1 110101:1 111776:1 112217:1 133576:1 139746:1 140782:1 #
0.23388598756127818023564657323732 1431:1 19821:1 49066:1 56527:1 88870:1 90329:1 96075:1 140779:1 #
0.1723996405262974707106593541539 1431:1 19821:1 72993:1 79825:1 88870:1 90329:1 96075:1 140779:1 #
0.23392185476339241723131578964967 1431:1 19821:1 84179:1 88870:1 90329:1 95935:1 96075:1 140779:1 #
0.22860210960495416787630063026882 1431:1 19821:1 37745:1 83598:1 88870:1 90329:1 96075:1 140779:1 #
0.23389449708927162463467652742111 1431:1 19821:1 26520:1 88870:1 90329:1 95590:1 96075:1 140779:1 #
-1 1431:1 19821:1 21846:1 30768:1 88870:1 90329:1 96075:1 140779:1 #
-0.7656255263223138429751202238549 1431:1 19821:1 30747:1 88870:1 90329:1 96075:1 128058:1 140779:1 #
-0.76562552632231273275209559869836 1431:1 19821:1 26983:1 88870:1 90329:1 96075:1 103599:1 140779:1 #
-0.76565669986047801831574588504736 1431:1 19821:1 69452:1 88870:1 90329:1 96075:1 128155:1 140779:1 #
0.086849574861856529417458716579858 63108:1 75003:1 76244:1 99048:1 110101:1 121319:1 139757:1 140782:1 #
-0.00097637934809128494682145538163809 1431:1 26990:1 32724:1 88873:1 95807:1 96075:1 122122:1 140778:1 #
-0.23129679960193189058870189001027 1108:1 25308:1 53321:1 91316:1 110114:1 121319:1 139757:1 140778:1 #
0.23392087048849730113175837686867 1431:1 19821:1 59088:1 88870:1 90329:1 91140:1 96075:1 140779:1 #
0.23392087048849691255369975806389 1431:1 19821:1 24747:1 40319:1 88870:1 90329:1 96075:1 140779:1 #
0.23387181938713177964395129038166 1431:1 5786:1 19821:1 34288:1 88870:1 90329:1 96075:1 140779:1 #
0.23387350783589702651887876072578 1431:1 13557:1 19821:1 80130:1 88870:1 90329:1 96075:1 140779:1 #
0.23392087048849680153139729554823 1431:1 11098:1 19821:1 87675:1 88870:1 90329:1 96075:1 140779:1 #
-0.036748659702596990495049311675757 13659:1 73925:1 96075:1 110106:1 111143:1 111207:1 139750:1 140780:1 #
-0.098749125165140783089157139329473 14340:1 73925:1 96075:1 110106:1 111143:1 114058:1 139750:1 140780:1 #
-0.098749125165140311244371673637943 68365:1 73925:1 96075:1 110106:1 111143:1 135940:1 139750:1 140780:1 #
0.038016116365479385441616955176869 40132:1 88873:1 96075:1 97719:1 102424:1 107117:1 139747:1 140778:1 #
0.037995367077932405697193729565697 13959:1 24895:1 40132:1 88873:1 96075:1 97719:1 139747:1 140778:1 #
0.038016116365479329930465723919042 28500:1 40132:1 88873:1 96075:1 97719:1 106161:1 139747:1 140778:1 #
-0.49722731565056638158850432773761 1431:1 40132:1 46696:1 88873:1 96075:1 97719:1 107696:1 140778:1 #
-0.89248432208697714429490588372573 1431:1 40132:1 78266:1 88262:1 88873:1 96075:1 97719:1 140778:1 #
-1 1431:1 21645:1 34227:1 40132:1 88873:1 96075:1 97719:1 140778:1 #
-0.84977790658564644754591199671268 1431:1 40132:1 88873:1 96075:1 97719:1 115840:1 122097:1 140778:1 #
0.99968853970094750938102379222983 88870:1 91031:1 117647:1 140784:1 143190:1 #
-0.41006029523205372866456741576258 88870:1 95457:1 117647:1 140779:1 141467:1 #
0.21990736695872456496481106569263 1431:1 16882:1 44122:1 50225:1 96075:1 102009:1 110105:1 140778:1 #
0.4052728021158021887160316509835 1431:1 23262:1 31302:1 38420:1 41672:1 96075:1 110105:1 140778:1 #
0.21990190220083649652593749124208 1431:1 30314:1 44122:1 50225:1 91099:1 96075:1 110105:1 140778:1 #
0.30394862556801588437949135368399 1431:1 1838:1 45926:1 94067:1 96075:1 97846:1 110105:1 140778:1 #
0.18380159829512721092470428629895 1431:1 17923:1 91980:1 96075:1 110105:1 126406:1 136104:1 140778:1 #
-0.69378635748989558873489613688434 1431:1 29202:1 96075:1 110105:1 123223:1 138431:1 140778:1 140787:1 #
-0.32680138968391064802077039530559 1431:1 17923:1 91980:1 96075:1 110105:1 123362:1 140778:1 142201:1 #
-0.78718077894996418830686479850556 11473:1 27147:1 117647:1 #
-0.46340790483771004959479000717693 11626:1 83982:1 110105:1 117647:1 140785:1 #
0.28805266967892573237719489043229 14160:1 81969:1 84721:1 96075:1 110105:1 136207:1 139757:1 140778:1 #
-0.015014028230022485876915538938192 1431:1 15777:1 33071:1 69736:1 93023:1 96075:1 110106:1 140781:1 #
0.26427055275861177641161248175194 413:1 60605:1 81969:1 84721:1 96075:1 110105:1 139757:1 140778:1 #
-0.0042148369668295951329106685534498 1431:1 47000:1 69378:1 73925:1 96075:1 110106:1 111143:1 140780:1 #
1 58753:1 87189:1 117647:1 #
-1 58753:1 87189:1 117647:1 #
0.037985904732065818578679028405531 40132:1 45132:1 88873:1 96075:1 97719:1 98549:1 139747:1 140778:1 #
0.037995367077933252242250006247559 32707:1 40132:1 88873:1 96075:1 97719:1 118424:1 139747:1 140778:1 #
0.038016116365478844207892450413055 40132:1 66723:1 88873:1 96075:1 97719:1 122175:1 139747:1 140778:1 #
0.038016116365478948291301009021481 40132:1 84647:1 88873:1 96075:1 97719:1 139747:1 140778:1 141040:1 #
-1 14037:1 40132:1 82215:1 88873:1 96075:1 97719:1 122755:1 140778:1 #
-0.84980205110391415779247381578898 1431:1 40132:1 88873:1 96075:1 97719:1 116897:1 128096:1 140778:1 #
-0.63601549937516543842264127306407 1431:1 40132:1 46696:1 88873:1 96075:1 97719:1 107696:1 140778:1 #
0.046144547131369999248828861482252 110114:1 111797:1 117647:1 138855:1 140779:1 #
0.046144547131369832715375167708771 13774:1 18296:1 110114:1 117647:1 140779:1 #
0.046193776588769434876535768808026 97836:1 110114:1 117647:1 138054:1 140779:1 #
0.11199448437929407362823042149103 25648:1 48401:1 96447:1 110114:1 140784:1 #
-0.030434908977007974623107955380874 1431:1 47901:1 55106:1 96075:1 110106:1 121618:1 134724:1 140785:1 #
-0.43300765017396886102929443040921 88873:1 94961:1 110065:1 117647:1 140779:1 #
-0.65771738609041840994962058175588 25648:1 35451:1 69056:1 93492:1 140781:1 #
-0.48342845809014756142119040305261 95226:1 101085:1 110105:1 117647:1 140783:1 #
-0.00133325412123404068130694266614 1431:1 73925:1 91373:1 96075:1 110106:1 110418:1 111143:1 140780:1 #
0.80005643159257422425412187294569 32757:1 81969:1 84721:1 96075:1 110105:1 122755:1 132355:1 140778:1 #
0.013484318964007296209883790538697 1431:1 86354:1 88870:1 96075:1 105263:1 124032:1 130311:1 140780:1 #
0.29999197864228743792835985004785 81969:1 84721:1 96075:1 110105:1 119068:1 122755:1 131295:1 140778:1 #
-0.0099825141796680214034687139701418 22048:1 88870:1 94770:1 98187:1 115408:1 121319:1 122755:1 140778:1 #
-0.046357998157092850100013947667321 18664:1 32407:1 33937:1 88870:1 121319:1 121942:1 122755:1 140778:1 #
-0.098127226920223506456686379806342 7765:1 37344:1 48404:1 88870:1 121319:1 122755:1 129463:1 140778:1 #
-0.08044410234812522653147226492365 32064:1 44700:1 88870:1 89356:1 98187:1 121319:1 122755:1 140778:1 #
0.18443844938915371356458194895822 1431:1 5922:1 17923:1 19330:1 91980:1 96075:1 110105:1 140778:1 #
0.1838015982951289595259680709205 1431:1 17923:1 52414:1 78872:1 91980:1 96075:1 110105:1 140778:1 #
0.12764199354003008535229923836596 1431:1 4149:1 19211:1 96075:1 109511:1 110105:1 110664:1 140778:1 #
0.61257022381673209565633442252874 1431:1 19405:1 56979:1 85501:1 96075:1 110105:1 117588:1 140778:1 #
0.26426041604453970323973521772132 1431:1 29106:1 85489:1 96075:1 96544:1 110105:1 132479:1 140778:1 #
-0.44963906538231879217448749841424 1431:1 19405:1 21366:1 85501:1 96075:1 105396:1 110105:1 140778:1 #
-0.38691390301601430445899154619838 1431:1 19405:1 74668:1 85501:1 96075:1 110105:1 114110:1 140778:1 #
-0.89250651956519544416579492462915 1431:1 19313:1 43085:1 58203:1 96075:1 110105:1 133304:1 140778:1 #
0.25707803131763440340762372215977 66954:1 88870:1 103329:1 117647:1 140781:1 #
0.25710559611981559369198180320382 65320:1 69015:1 88870:1 117647:1 140781:1 #
0.25647559169981193338827551997383 9228:1 88870:1 117647:1 124438:1 140780:1 #
-1 78361:1 108398:1 110105:1 128302:1 140780:1 #
-0.37226961041457273804411443052231 10421:1 108398:1 110105:1 117647:1 140780:1 #
0.65473681524144544674470580503112 1431:1 18706:1 19313:1 58203:1 96075:1 110105:1 140778:1 141800:1 #
0.65473681524144511367779841748415 1431:1 19313:1 58203:1 96075:1 110105:1 127306:1 140208:1 140778:1 #
0.65473681524144633492312550515635 1431:1 19313:1 23968:1 58203:1 96075:1 110105:1 132488:1 140778:1 #
0.6125702238167307633887048723409 1431:1 19405:1 73234:1 85472:1 85501:1 96075:1 110105:1 140778:1 #
1 19313:1 58203:1 67190:1 96075:1 110105:1 128206:1 139748:1 140778:1 #
-0.89237236129410613116874628758524 79850:1 88870:1 96075:1 117026:1 122706:1 128072:1 134366:1 140778:1 #
-0.1027862421704682227563409924187 1431:1 86702:1 93741:1 96075:1 108640:1 110101:1 139567:1 140778:1 #
-0.07261456280402620033775917818275 1431:1 2917:1 25397:1 79685:1 88870:1 96075:1 132316:1 140778:1 #
-0.08067178303502106628819490197202 1431:1 15321:1 19284:1 77703:1 88870:1 96075:1 99673:1 140778:1 #
-0.32787240425455832504297859486542 1431:1 22246:1 31397:1 76807:1 88870:1 96075:1 121220:1 140778:1 #
0.141316756933575732313457251621 7127:1 78361:1 110101:1 134501:1 140780:1 #
-0.015040428830815034608181512965075 1431:1 15777:1 69736:1 73134:1 96075:1 110106:1 118330:1 140781:1 #
0.18129656037373137467128003663674 1431:1 42744:1 55983:1 88870:1 96075:1 132429:1 138347:1 140778:1 #
-0.45227657733713844123712988221087 1431:1 19965:1 88860:1 96075:1 96980:1 122846:1 132157:1 140781:1 #
-0.57415781347751149166214190699975 19313:1 27468:1 30914:1 58203:1 96075:1 110105:1 139748:1 140778:1 #
-0.6489418455094778659386633989925 21115:1 63129:1 88870:1 93964:1 96075:1 99603:1 139748:1 140778:1 #
-0.22341114589905261555990989563725 13129:1 13383:1 63418:1 73708:1 96075:1 110105:1 139757:1 140779:1 #
0.36625888028072733915152525696612 2028:1 7889:1 79412:1 88873:1 96075:1 134266:1 139747:1 140778:1 #
-0.35679890544894649062612757006718 14269:1 88873:1 117647:1 124769:1 140780:1 #
0.074247957800366123914947991124791 13730:1 19821:1 88870:1 90329:1 96075:1 110466:1 139748:1 140779:1 #
-0.0016782758550547964039589832196953 1431:1 14577:1 51218:1 75503:1 87830:1 96075:1 110105:1 140778:1 #
0.074272249637337375838264108551812 14466:1 19821:1 27242:1 88870:1 90329:1 96075:1 139748:1 140779:1 #
0.074272249637337486860566571067466 11788:1 19821:1 35935:1 88870:1 90329:1 96075:1 139748:1 140779:1 #
-0.7151938695398432077610095802811 19821:1 51359:1 88870:1 90329:1 96075:1 109419:1 139748:1 140779:1 #
-0.5207289059240777229220498156792 19821:1 88870:1 90329:1 96075:1 97807:1 132228:1 139747:1 140779:1 #
0.56124785853879854968795370950829 19313:1 19505:1 49390:1 58203:1 96075:1 110105:1 139750:1 140778:1 #
0.56116890303525090999414715042803 19313:1 23728:1 58203:1 84328:1 96075:1 110105:1 139750:1 140778:1 #
-0.047625108625258955052927944961993 1431:1 39778:1 42084:1 91168:1 96075:1 110106:1 137593:1 140783:1 #
-0.93900941397711634728295848617563 23262:1 34200:1 41672:1 72070:1 96075:1 110105:1 139750:1 140778:1 #
-1 7889:1 12238:1 43526:1 79412:1 88873:1 96075:1 139746:1 140778:1 #
-0.52116427219645933277547555917408 1431:1 7889:1 79412:1 88873:1 92885:1 96075:1 104130:1 140778:1 #
0.51312679262883287290009093339904 19821:1 26665:1 82215:1 88870:1 90329:1 96075:1 122755:1 140779:1 #
0.07055948066780592942137673162506 7730:1 19821:1 45526:1 88870:1 90329:1 96075:1 122706:1 140779:1 #
0.039701326191633863615937372060216 1431:1 5759:1 16849:1 77683:1 96075:1 99518:1 110114:1 140778:1 #
0.010450441783855457522633969347226 1431:1 23106:1 43028:1 75855:1 90281:1 96075:1 #
0.010534986671709363134641357362398 1431:1 7678:1 75855:1 90281:1 96075:1 102753:1 #
-0.59015734857680113290001600034884 19821:1 67403:1 88870:1 90329:1 96075:1 105638:1 122706:1 140779:1 #
0.29308137961069502530619956814917 23262:1 41672:1 71597:1 96075:1 110105:1 121184:1 139747:1 140778:1 #
0.88370222262526454404252262975206 14577:1 51218:1 75995:1 96075:1 110105:1 122075:1 139747:1 140778:1 #
0.43751866559725854921580889822508 7536:1 75140:1 96075:1 99165:1 110105:1 134045:1 139747:1 140778:1 #
0.50683373375666751492474304541247 31257:1 35662:1 42569:1 78378:1 96075:1 110105:1 139747:1 140778:1 #
0.44236435095503989778364939411404 1431:1 42871:1 57517:1 96075:1 98292:1 105087:1 110105:1 140778:1 #
-0.096705598479506202358457755963173 19313:1 57758:1 58203:1 64509:1 96075:1 110105:1 139752:1 140778:1 #
0.20491563150107849899939083115896 26842:1 31585:1 88860:1 90147:1 114728:1 121319:1 122706:1 140779:1 #
0.098681693120731023283198624085344 11780:1 19821:1 88870:1 90329:1 96075:1 99483:1 122706:1 140779:1 #
0.010482702758553933200524888036398 1431:1 42345:1 75855:1 90281:1 96075:1 96248:1 #
0.035863263150671564893912091065431 19821:1 27972:1 28427:1 88870:1 90329:1 96075:1 122706:1 140779:1 #
0.070559480667806623310767122347897 9338:1 19821:1 59524:1 88870:1 90329:1 96075:1 122706:1 140779:1 #
0.77311579897360094282277032107231 19313:1 58203:1 73708:1 96075:1 110105:1 127950:1 139757:1 140778:1 #
0.74353485062690272133778535135207 74543:1 79850:1 85831:1 88870:1 96075:1 134366:1 139746:1 140778:1 #
0.34610418919610758115013027236273 31921:1 90061:1 93632:1 96075:1 110105:1 118070:1 139752:1 140778:1 #
0.30997607435753121718491343017376 19313:1 58203:1 81024:1 95863:1 96075:1 110105:1 139757:1 140778:1 #
0.10848837546949836874166095412875 3548:1 29769:1 88870:1 117647:1 140782:1 #
-0.030445056676146140667293948922634 1431:1 8238:1 96075:1 110106:1 114338:1 121618:1 134724:1 140785:1 #
-0.03041565750192786604655381665907 1431:1 16306:1 47646:1 96075:1 110106:1 121618:1 134724:1 140785:1 #
0.080416112069623207903035222443577 29051:1 74897:1 88870:1 96075:1 110129:1 134712:1 139747:1 140778:1 #
0.86283702757870406330198420619126 1431:1 47548:1 85049:1 96075:1 101982:1 110106:1 121500:1 140772:1 #
-0.031782106561543212175369177430184 1431:1 25566:1 62261:1 81719:1 96075:1 110105:1 124504:1 140779:1 #
-0.21481855398910792986910678337154 47548:1 58676:1 96075:1 101982:1 110106:1 119192:1 139747:1 140772:1 #
-0.070473889689320903806368789901171 20895:1 47548:1 95107:1 96075:1 101982:1 110106:1 139747:1 140772:1 #
-0.29211283273470478594191490628873 10682:1 47548:1 65186:1 96075:1 101982:1 110106:1 122706:1 140772:1 #
-0.25865439239606213828182035285863 47548:1 50797:1 96075:1 101982:1 110106:1 113843:1 122717:1 140772:1 #
-0.043784450418997158949174774988933 10461:1 64975:1 103229:1 110105:1 121319:1 134045:1 139757:1 140778:1 #
0.29885665666469468648713814218354 1431:1 5663:1 19821:1 88870:1 90329:1 96075:1 123019:1 140779:1 #
0.23388443233091787964994523463247 1431:1 19821:1 29429:1 88870:1 90329:1 96075:1 117437:1 140779:1 #
0.2339498004618066340221105292585 1431:1 19821:1 88870:1 90329:1 96075:1 128742:1 140779:1 142500:1 #
0.23394980046180693933344230117655 1431:1 17011:1 19821:1 36240:1 88870:1 90329:1 96075:1 140779:1 #
0.23389449708927251281309622754634 1431:1 19821:1 25268:1 49217:1 88870:1 90329:1 96075:1 140779:1 #
0.86291285081881208274268146851682 1431:1 47548:1 72223:1 96075:1 98486:1 101982:1 110106:1 140772:1 #
0.16094170314579264724486051818531 88873:1 92496:1 114840:1 117647:1 140772:1 #
0.16554320093513399947404707290843 88873:1 92420:1 117647:1 120469:1 140772:1 #
0.010510044999783519498182116080898 1431:1 52089:1 75855:1 88040:1 90281:1 96075:1 #
0.0091544123533040845652752892647186 88873:1 89075:1 92496:1 119617:1 140772:1 #
-1 42514:1 75855:1 88615:1 90281:1 96075:1 122755:1 #
-1 52166:1 70894:1 77130:1 88873:1 96075:1 122755:1 132355:1 140778:1 #
-1 25872:1 48553:1 75855:1 90281:1 96075:1 139750:1 #
0.23388443233091787964994523463247 1431:1 19821:1 34615:1 37486:1 88870:1 90329:1 96075:1 140779:1 #
0.23389243420165098386043212030927 1431:1 19821:1 38762:1 88870:1 90329:1 96075:1 106834:1 140779:1 #
0.2338735078358974706080886107884 1431:1 12761:1 19821:1 88870:1 90329:1 96075:1 119343:1 140779:1 #
0.23387350783589741509693737953057 1431:1 19821:1 52651:1 88870:1 90329:1 96075:1 113905:1 140779:1 #
0.23386898784162191144986309154774 1431:1 19821:1 26243:1 88870:1 90329:1 96075:1 117006:1 140779:1 #
-0.002103445050938080804203700324706 1431:1 14577:1 51218:1 74366:1 74435:1 96075:1 110105:1 140778:1 #
-0.015016088656968630890564675439691 1431:1 15777:1 69736:1 90394:1 96075:1 98864:1 110106:1 140781:1 #
-0.015017769655451845833837865029636 1431:1 15777:1 33239:1 69736:1 96075:1 110106:1 140781:1 140904:1 #
-1 51350:1 75855:1 90199:1 90281:1 96075:1 139746:1 #
-0.76607956493201245784518960135756 49087:1 63715:1 75855:1 90281:1 96075:1 139746:1 #
0.12634924918838089102912647376797 19821:1 49005:1 88870:1 90329:1 96075:1 131855:1 139752:1 140779:1 #
0.12627191195102205334421796578681 19821:1 88870:1 90329:1 94133:1 96075:1 139752:1 140779:1 142317:1 #
0.12634924918838064122894593310775 19821:1 61377:1 88870:1 90329:1 96075:1 125887:1 139752:1 140779:1 #
0.34235604437093053453722291123995 19821:1 52132:1 88870:1 90329:1 95554:1 96075:1 139752:1 140779:1 #
0.12634924918838036367318977681862 19821:1 74938:1 88870:1 90329:1 96075:1 125316:1 139752:1 140779:1 #
-0.22416029278021801229847653758043 19261:1 41656:1 52132:1 88870:1 96075:1 139752:1 140778:1 141249:1 #
-0.47833260637398145043164277012693 67138:1 88870:1 90329:1 117647:1 140779:1 #
0.48751852496040543050170867900306 1431:1 66367:1 66890:1 96075:1 97140:1 129410:1 #
0.048328005967585220548077273861054 1431:1 1706:1 75855:1 90281:1 91803:1 96075:1 #
-0.25887566224274455306542108701251 1431:1 55662:1 55779:1 96075:1 100762:1 110106:1 126706:1 140781:1 #
-0.25887566224274377590930384940293 1431:1 55662:1 96075:1 110106:1 115465:1 126706:1 129028:1 140781:1 #
-0.25887566224274499715463093707513 1431:1 55662:1 91037:1 96075:1 96470:1 110106:1 126706:1 140781:1 #
-0.25887566224274627391110925600515 1431:1 46697:1 55662:1 96075:1 110106:1 112363:1 126706:1 140781:1 #
0.38852476920527162507212892705866 74225:1 110101:1 117647:1 124764:1 140778:1 #
0.27005784121963372079733289865544 1762:1 57273:1 88873:1 117647:1 140782:1 #
0.27060265672492161970197344089684 45816:1 88873:1 117647:1 140782:1 142212:1 #
-1 75374:1 77346:1 78376:1 88873:1 96075:1 127387:1 139752:1 140778:1 #
-1 78361:1 108398:1 110105:1 128302:1 140780:1 #
0.070184129996411673269030018218473 19821:1 68157:1 88870:1 90329:1 96075:1 99413:1 122706:1 140779:1 #
0.1778675674299266262767815760526 39798:1 45187:1 53912:1 59250:1 78221:1 96075:1 110105:1 140778:1 #
0.29396940892341832940459767087304 732:1 31157:1 71097:1 94823:1 96075:1 110105:1 122706:1 140778:1 #
0.49069769423233294824981953752285 65394:1 74697:1 93255:1 96075:1 110105:1 122706:1 130172:1 140778:1 #
0.13724168273741615964311790776264 21669:1 36067:1 72071:1 96075:1 97364:1 110105:1 122706:1 140778:1 #
-1 9164:1 28084:1 49314:1 96075:1 110101:1 122706:1 140783:1 141329:1 #
-0.014998513555637547900456496563493 1431:1 15777:1 40662:1 69736:1 96075:1 110106:1 137188:1 140781:1 #
-0.057690309152946414594786972429574 1431:1 23990:1 68720:1 71210:1 96075:1 108779:1 110106:1 140782:1 #
-0.1348447859823570793569302850301 14577:1 51218:1 52132:1 96075:1 110105:1 139752:1 140778:1 142820:1 #
0.31944854543359801901658556744223 1431:1 19821:1 22825:1 56210:1 88870:1 90329:1 96075:1 140779:1 #
0.2339218547633922784534377115051 1431:1 19821:1 58344:1 80227:1 88870:1 90329:1 96075:1 140779:1 #
0.21210435590567930375094363171229 1431:1 19821:1 59410:1 63455:1 88870:1 90329:1 96075:1 140779:1 #
0.23394980046180610666617383230914 1431:1 19821:1 37354:1 63762:1 88870:1 90329:1 96075:1 140779:1 #
0.23387181938713155759934636535036 1431:1 19821:1 28778:1 41471:1 88870:1 90329:1 96075:1 140779:1 #
0.20742587447574786785331468763616 29956:1 33860:1 96075:1 110105:1 130356:1 131293:1 139746:1 140778:1 #
0.3746575232011754019723070996406 15797:1 25139:1 55646:1 78416:1 88860:1 121319:1 139752:1 140778:1 #
1 9164:1 81969:1 84721:1 96075:1 110105:1 122706:1 124705:1 140778:1 #
-0.059884277488743267725546104429668 19059:1 83594:1 96075:1 110032:1 110106:1 110724:1 139747:1 140780:1 #
0.23389243420165076181582719527796 1431:1 19821:1 88870:1 90329:1 96075:1 100941:1 101606:1 140779:1 #
0.23390842543281312182479325656459 1431:1 19821:1 88633:1 88870:1 90329:1 96075:1 96639:1 140779:1 #
0.2339084254328129275357639471622 1431:1 19821:1 20232:1 88400:1 88870:1 90329:1 96075:1 140779:1 #
0.2338735078358974706080886107884 1431:1 2414:1 19821:1 47219:1 88870:1 90329:1 96075:1 140779:1 #
0.38769539280670473058165725888102 1431:1 19821:1 29355:1 81877:1 88870:1 90329:1 96075:1 140779:1 #
0.52787638888320409513710274040932 17923:1 51359:1 57323:1 91980:1 96075:1 110105:1 139748:1 140778:1 #
0.47009904335596613966785639604495 2686:1 9730:1 87239:1 96075:1 110105:1 126647:1 139750:1 140778:1 #
0.23576007545786917263264115263155 9730:1 15000:1 35883:1 68760:1 96075:1 110105:1 139750:1 140778:1 #
0.3532884825534913231237510444771 28996:1 31926:1 74974:1 96075:1 101427:1 110105:1 139750:1 140778:1 #
0.35329394257526502975963467179099 16485:1 81905:1 89672:1 96075:1 110105:1 139750:1 140778:1 142456:1 #
-0.27858281927221600904331921810808 23924:1 78824:1 96075:1 110105:1 114285:1 139750:1 140778:1 142098:1 #
-0.16826860957717129640975883830833 22422:1 71056:1 96075:1 110105:1 110806:1 129802:1 139750:1 140778:1 #
0.53258801708575342903628779822611 1431:1 19821:1 37904:1 88870:1 90329:1 96075:1 117379:1 140779:1 #
0.23390842543281364918072995351395 1431:1 19821:1 69116:1 69891:1 88870:1 90329:1 96075:1 140779:1 #
0.23389449708927192994600829933916 1431:1 19821:1 77985:1 79321:1 88870:1 90329:1 96075:1 140779:1 #
0.23390842543281256671328094398632 1431:1 19821:1 73686:1 88870:1 90329:1 91401:1 96075:1 140779:1 #
-0.70348730279987670144237199565396 1431:1 18734:1 66890:1 96075:1 97140:1 130518:1 #
0.21196558907238083335755618463736 24310:1 50154:1 96075:1 110105:1 123223:1 138431:1 139750:1 140778:1 #
1 78361:1 108398:1 110105:1 128302:1 140780:1 #
0.29579240818467789075896234862739 1431:1 56365:1 66890:1 96075:1 97140:1 99644:1 #
0.29579240818467766871435742359608 1431:1 47195:1 66890:1 96075:1 97140:1 132660:1 #
0.29583417004805601102646051003831 1431:1 6772:1 57021:1 66890:1 96075:1 97140:1 #
0.26530934024558011641303778560541 1431:1 34703:1 38149:1 66890:1 96075:1 97140:1 #
0.23389449708927154136794968053437 1431:1 19821:1 60530:1 74067:1 88870:1 90329:1 96075:1 140779:1 #
-1 66890:1 78376:1 96075:1 97140:1 102837:1 139752:1 #
-0.56615474275611943344443943715305 1431:1 55067:1 58352:1 83664:1 96075:1 128267:1 #
-0.8422342927749051355590381717775 1431:1 34577:1 48762:1 83192:1 88873:1 96075:1 140778:1 141320:1 #
-0.94338687000042942276678559210268 29645:1 66890:1 73708:1 96075:1 97140:1 139757:1 #
-1 78361:1 108398:1 110105:1 128302:1 140780:1 #
-0.88280909909872540275443952850765 6443:1 41004:1 96075:1 108398:1 110105:1 127621:1 139750:1 140780:1 #
0.54165586922524200375050895672757 66890:1 78376:1 96075:1 97140:1 102837:1 139752:1 #
0.26104030594108140750364555060514 34577:1 43179:1 88873:1 96075:1 103885:1 139747:1 140778:1 141320:1 #
0.18843240140659142656254232406354 59434:1 66890:1 96075:1 97140:1 127860:1 139752:1 #
-0.2342613271606111546851991533913 2373:1 78378:1 84392:1 94183:1 96075:1 110106:1 139747:1 140781:1 #
-0.1426313631298387341050926124808 9996:1 54610:1 96075:1 110106:1 132309:1 136493:1 139752:1 140782:1 #
-0.14263136312983898390527315314102 54610:1 96075:1 110106:1 121860:1 125530:1 132309:1 139752:1 140782:1 #
-0.0094816818290406456454233463659875 96075:1 110106:1 116088:1 117304:1 137769:1 139752:1 139959:1 140781:1 #
0.1322907897302646185178076621014 1431:1 69873:1 74401:1 103647:1 110101:1 121319:1 135617:1 140783:1 #
0.10850740029450456347603903850541 15764:1 88870:1 113112:1 117647:1 140782:1 #
-0.030415657501927654410289747488605 1431:1 34070:1 96075:1 110106:1 121618:1 134724:1 139148:1 140785:1 #
-0.011274314916016816776056508331294 1431:1 19059:1 30710:1 55724:1 96075:1 110106:1 110724:1 140780:1 #
0.85736863687015896218213129031938 179:1 54610:1 91298:1 96075:1 110106:1 132309:1 139752:1 140782:1 #
0.84395868546244345864693059411366 18543:1 39869:1 54610:1 96075:1 110106:1 122717:1 132309:1 140782:1 #
-0.15604131453755859526566496242594 54610:1 96075:1 106873:1 110106:1 122717:1 123873:1 132309:1 140782:1 #
-0.19550565982822581956313001683156 52132:1 54610:1 96075:1 110106:1 132309:1 134843:1 139752:1 140782:1 #
0.55466038614128221340138225059491 32481:1 34697:1 81969:1 84721:1 96075:1 110105:1 122706:1 140778:1 #
-0.21614030087993246764810351123742 12472:1 54610:1 72106:1 96075:1 110106:1 122706:1 132309:1 140782:1 #
-0.37478642559742220141671964483976 59896:1 67394:1 88873:1 96075:1 105079:1 122706:1 124937:1 140778:1 #
-1 7911:1 15455:1 76624:1 76773:1 88873:1 96075:1 122706:1 140778:1 #
-0.10107679008993232516733229431338 238:1 88873:1 96075:1 101309:1 122706:1 125701:1 126097:1 140778:1 #
0.37499733287225178735013741970761 38399:1 78376:1 96075:1 110105:1 125569:1 139752:1 140778:1 143208:1 #
0.18312731305035007123294121811341 22720:1 78376:1 96075:1 110105:1 129318:1 139752:1 140778:1 142829:1 #
-0.48324232120767068865418991663319 53503:1 78376:1 96075:1 97953:1 110105:1 139752:1 139784:1 140778:1 #
-1 78376:1 83367:1 88344:1 96075:1 110105:1 139752:1 140778:1 141579:1 #
-0.15394050614638354890217897263938 10079:1 54300:1 59671:1 88097:1 96075:1 110105:1 139752:1 140778:1 #
-0.15394458307301553401380544983112 42122:1 88410:1 96075:1 110105:1 127615:1 134437:1 139752:1 140778:1 #
-0.13367808984474294220490264706314 45913:1 92802:1 96075:1 110105:1 139752:1 140778:1 140965:1 142198:1 #
0.42034435130535835467568972489971 54610:1 59042:1 96075:1 99442:1 110106:1 122706:1 132309:1 140782:1 #
0.41862600444138581279318600536499 43659:1 58787:1 88873:1 117647:1 140781:1 #
0.41862600444138570177088354284933 39135:1 88873:1 117647:1 140781:1 142629:1 #
0.20982853913638319087731076706405 6158:1 76624:1 76773:1 88873:1 96075:1 111444:1 139747:1 140778:1 #
0.21825141621586982565439427617093 63571:1 66584:1 76624:1 76773:1 88873:1 96075:1 139747:1 140778:1 #
-0.72192716716963600820378132993937 17368:1 66890:1 94206:1 104257:1 105514:1 121319:1 #
-0.19758742724362035603213882950513 96091:1 121319:1 127403:1 132527:1 139203:1 139747:1 #
-0.29819165195769969933792253868887 66890:1 78367:1 102848:1 #
0.44167057284027111396795817199745 7536:1 12661:1 96075:1 110105:1 125694:1 134045:1 139752:1 140778:1 #
-0.016152831111362054433699952937786 1431:1 79955:1 92290:1 96075:1 105639:1 110106:1 124308:1 140780:1 #
0.29719766370130307198138552848832 23262:1 41672:1 56024:1 96075:1 110105:1 117286:1 139752:1 140778:1 #
-1 76624:1 76773:1 83441:1 88873:1 89533:1 96075:1 122755:1 140778:1 #
-1 1431:1 21233:1 72034:1 76624:1 76773:1 88873:1 96075:1 140778:1 #
-1 1431:1 4346:1 12299:1 76624:1 76773:1 88873:1 96075:1 140778:1 #
0.20880411270899787434807137742609 47486:1 78413:1 88860:1 102818:1 108303:1 121319:1 139752:1 140779:1 #
-0.066553793828934920684403664381534 28144:1 46572:1 80364:1 88873:1 96075:1 119014:1 139752:1 140779:1 #
-0.065260782181215629127457589220285 46572:1 80671:1 88873:1 96075:1 119014:1 119330:1 139752:1 140779:1 #
0.31990275401707490843250525358599 1431:1 13549:1 21708:1 36413:1 76226:1 96075:1 110105:1 140778:1 #
0.40006209988051477655091048291069 1431:1 40792:1 44100:1 58474:1 96075:1 110105:1 133606:1 140778:1 #
0.50675414849146593887496692332206 1431:1 31477:1 76042:1 76919:1 96075:1 110105:1 131485:1 140778:1 #
0.40006657993581368204516479636368 1431:1 16443:1 65807:1 96075:1 98620:1 110105:1 127417:1 140778:1 #
0.45864480846910582467756967162131 1431:1 27394:1 31477:1 72091:1 76042:1 96075:1 110105:1 140778:1 #
-0.28740877543376031066912901223986 1431:1 5596:1 28298:1 96075:1 110105:1 125569:1 140778:1 143208:1 #
-0.558041119579124944571901778545 1431:1 31477:1 76042:1 81703:1 96075:1 110105:1 132955:1 140778:1 #
-0.6067440186097335930170970641484 1431:1 1683:1 7536:1 57964:1 96075:1 110105:1 134045:1 140778:1 #
-0.48881578250850604705490809465118 1431:1 17923:1 91980:1 96075:1 110105:1 123362:1 140778:1 142201:1 #
0.30460361569010646620725424327247 48828:1 56093:1 78411:1 121319:1 124363:1 139752:1 #
0.17083002878791797574109523338848 64161:1 87189:1 89075:1 #
-0.32834930168912712655782115689362 2715:1 9545:1 65577:1 90096:1 110105:1 121319:1 139757:1 140779:1 #
0.45857708156525223142097047457355 1431:1 31477:1 43878:1 54828:1 76042:1 96075:1 110105:1 140778:1 #
0.45864480846910721245635045306699 1431:1 31477:1 52331:1 76042:1 96075:1 107989:1 110105:1 140778:1 #
0.45864480846910810063477015319222 1431:1 31477:1 76042:1 82847:1 93245:1 96075:1 110105:1 140778:1 #
0.47418636081875975563093561504502 1431:1 32299:1 40056:1 42263:1 96075:1 110105:1 125385:1 140778:1 #
0.53422313026904466592981179928756 1431:1 52847:1 80354:1 96075:1 101476:1 110105:1 140778:1 142024:1 #
-0.64900265126025347139915311345248 31477:1 43930:1 76042:1 96075:1 110105:1 121922:1 139752:1 140778:1 #
-0.70458164412081558669598280175705 31477:1 76042:1 96075:1 98412:1 110105:1 122706:1 132875:1 140778:1 #
-0.70458164412081714100821727697621 10883:1 31477:1 76042:1 96075:1 110105:1 122706:1 134809:1 140778:1 #
0.546963780876976835010339073051 54610:1 74418:1 96075:1 110106:1 122755:1 132309:1 134870:1 140782:1 #
0.037351306135963366350516423608497 1431:1 26916:1 37419:1 85046:1 86263:1 96075:1 110102:1 140778:1 #
-0.14131234512526483215744121935131 1431:1 28937:1 30726:1 88143:1 108867:1 121319:1 #
-0.073443150053176350922079507199669 66890:1 68578:1 94206:1 121319:1 136927:1 139746:1 #
0.29852648866681191774929970961239 8615:1 31477:1 76042:1 96075:1 110105:1 139748:1 140778:1 142641:1 #
0.14704259497423188829401397015317 31477:1 75975:1 76042:1 77035:1 96075:1 110105:1 139746:1 140778:1 #
0.14702760909729689631220139744983 31477:1 32345:1 38853:1 76042:1 96075:1 110105:1 139746:1 140778:1 #
0.47341006118052081363956062887155 9098:1 29533:1 64516:1 96075:1 110105:1 122706:1 126097:1 140778:1 #
0.04071083546679958586889114258156 9925:1 31477:1 58872:1 76042:1 96075:1 110105:1 122755:1 140778:1 #
-0.24266053879149626637534709061583 25706:1 29920:1 32723:1 49699:1 96075:1 110105:1 139747:1 140778:1 #
-0.22437678526931917333264721037267 46335:1 63700:1 69437:1 71205:1 96075:1 110105:1 139757:1 140778:1 #
-0.13200897856257978735250446788996 1431:1 80354:1 88348:1 95842:1 96075:1 110105:1 135243:1 140778:1 #
-0.13215791086753714278501092849183 1431:1 54529:1 80354:1 96075:1 99659:1 106658:1 110105:1 140778:1 #
-0.43917084759846564123719758754305 2686:1 36277:1 87239:1 96075:1 110105:1 111383:1 122717:1 140778:1 #
0.21532741674607691617637783565442 81843:1 118946:1 121319:1 122706:1 140633:1 142340:1 #
-0.21065027909751579682229305490182 2715:1 51987:1 65577:1 67662:1 110105:1 121319:1 139746:1 140779:1 #
-0.22134459770703318604034848249285 2374:1 12401:1 118396:1 121319:1 123429:1 139748:1 #
0.40026914690903403482025169068947 1431:1 25419:1 33799:1 90567:1 96075:1 110105:1 114878:1 140778:1 #
0.60877705202321785726837788388366 9291:1 42578:1 96075:1 110105:1 122717:1 124911:1 140778:1 141588:1 #
-0.26904250645267013819506018990069 1431:1 9291:1 35528:1 96075:1 98205:1 110105:1 140778:1 141588:1 #
-0.26978620627076627114249163241766 1431:1 9291:1 20368:1 96075:1 96501:1 110105:1 140778:1 141588:1 #
0.01048569920306342828641987807714 1431:1 56107:1 75855:1 90281:1 96075:1 133354:1 #
0.27028063138540908694196218675643 36514:1 75855:1 81807:1 94017:1 121319:1 139748:1 #
0.095961617804057527947314554239711 25737:1 41235:1 78413:1 118633:1 121319:1 139752:1 #
-0.19426237955900210740978195644857 75855:1 78353:1 135340:1 #
-0.20224262919014762696079401393945 48433:1 54175:1 65937:1 121319:1 122717:1 134070:1 #
0.12986428916999548377475548477378 64116:1 78353:1 88016:1 93492:1 140783:1 #
0.15632379107150942698645224027132 56927:1 78353:1 110101:1 111691:1 140784:1 #
0.062845935874599648252036843132373 31775:1 78353:1 97049:1 110113:1 140784:1 #
-0.01494236610200968401462873202945 1431:1 15777:1 58118:1 69736:1 78529:1 96075:1 110106:1 140781:1 #
0.00089611441791105650184895425880427 7284:1 17834:1 88870:1 96075:1 122717:1 127691:1 136439:1 140779:1 #
-0.12183747335600408900901925335347 81253:1 88873:1 93786:1 96075:1 106723:1 121708:1 122717:1 140779:1 #
1 78361:1 108398:1 110105:1 128302:1 140780:1 #
0.24678877000333510061125252832426 24101:1 88873:1 113057:1 139837:1 140782:1 #
0.39648215333253122860668327120948 18679:1 78361:1 89473:1 #
0.39655610191744933290536323511333 78296:1 78361:1 93618:1 #
0.38703291369500381069457262128708 28689:1 70725:1 78361:1 #
-0.18015810780472316099398710775858 86419:1 88873:1 89075:1 124769:1 140780:1 #
0.025692594633849048790796842922646 24430:1 78360:1 88870:1 135121:1 140780:1 #
0.025692594633848597762693088952801 78360:1 88870:1 94930:1 96563:1 140780:1 #
0.025316093592411742507763960929879 17587:1 78360:1 88870:1 89333:1 140780:1 #
0.25634281843789552546297727531055 41187:1 88870:1 117647:1 140780:1 141559:1 #
-0.26030873907443785597592977865133 30344:1 64975:1 98425:1 108398:1 110105:1 121319:1 139757:1 140780:1 #
0.22092725778907210121282389536645 82967:1 84907:1 88873:1 117647:1 140783:1 #
0.19807195524528700691924143484357 85302:1 88873:1 117647:1 132505:1 140783:1 #
-0.059865412764270771461827536086275 19059:1 36566:1 96075:1 101615:1 110106:1 110724:1 139747:1 140780:1 #
0.092967974416042847840557783456461 23262:1 37079:1 41672:1 96075:1 110105:1 110753:1 139746:1 140778:1 #
0.53322595298944341912772415525978 19313:1 58203:1 89036:1 96075:1 110105:1 118132:1 122717:1 140778:1 #
0.15730399127020303073898332968383 28521:1 78433:1 80909:1 96075:1 104257:1 110105:1 138073:1 140778:1 #
-0.62450423295685442148794663808076 1431:1 19313:1 38558:1 58203:1 96075:1 110105:1 117379:1 140778:1 #
-0.3447331636587982472974545089528 1431:1 19313:1 47643:1 58203:1 81869:1 96075:1 110105:1 140778:1 #
-0.024693467656663213583012606022749 1431:1 19313:1 58203:1 96075:1 100200:1 110105:1 140778:1 141509:1 #
-0.46706932647634319399898572555685 1431:1 19313:1 32098:1 37460:1 58203:1 96075:1 110105:1 140778:1 #
-0.024728520573493856932190126940441 1431:1 19313:1 42112:1 58203:1 96075:1 110105:1 122964:1 140778:1 #
0.070436257901423340865854072490038 1128:1 35723:1 78367:1 88860:1 140782:1 #
0.038073790488282265032093931722557 27376:1 53179:1 110101:1 127557:1 140780:1 #
0.062647214280119212226338731852593 8996:1 32282:1 53912:1 75227:1 88860:1 100300:1 121319:1 140782:1 #
-0.1796943761951011186983606648937 961:1 23990:1 68720:1 96075:1 106187:1 110106:1 122717:1 140782:1 #
-0.13797349976178435726481552592304 23990:1 68720:1 88906:1 96075:1 110106:1 122717:1 125352:1 140782:1 #
-0.03041433967000388080559325487684 1431:1 38656:1 96075:1 102813:1 110106:1 121618:1 134724:1 140785:1 #
-0.19875400516763699898525885600975 1431:1 10568:1 79134:1 84940:1 91831:1 96075:1 110106:1 140780:1 #
-0.015056258267772244796578462455727 1431:1 6773:1 15777:1 69736:1 96075:1 110106:1 139953:1 140781:1 #
-0.030400680985321774929541760457141 1431:1 22396:1 26894:1 96075:1 110106:1 121618:1 134724:1 140785:1 #
0.82030562380489813190109771312564 23990:1 25683:1 68720:1 96075:1 110106:1 122717:1 136713:1 140782:1 #
-0.17027523674868841330187763105641 23990:1 30909:1 61400:1 68720:1 96075:1 110106:1 139747:1 140782:1 #
-0.42165211670892549511435731801612 23271:1 23990:1 36495:1 68720:1 96075:1 110106:1 122706:1 140782:1 #
0.55466038614128332362440687575145 80098:1 81969:1 84721:1 96075:1 98503:1 110105:1 122706:1 140778:1 #
0.55463628574100998225304692823556 31448:1 68978:1 81969:1 84721:1 96075:1 110105:1 122706:1 140778:1 #
0.55466038614128132522296255046967 4187:1 81969:1 84721:1 96075:1 104719:1 110105:1 122706:1 140778:1 #
0.11009777224421395114273281023998 19864:1 38139:1 50689:1 82014:1 110101:1 121319:1 139750:1 140782:1 #
-0.24255752171356192992135447639157 39292:1 96075:1 110106:1 121618:1 122706:1 126097:1 134724:1 140785:1 #
-0.25071969537116683968136499061075 96075:1 110106:1 117148:1 121618:1 122706:1 134724:1 137332:1 140785:1 #
-0.017674587750628866639202030341949 1431:1 9286:1 96075:1 100207:1 103871:1 110106:1 120041:1 140781:1 #
-0.15250115413527703944751579001604 8211:1 96075:1 110106:1 112547:1 121618:1 122717:1 134724:1 140785:1 #
0.30972721976929473708395335052046 69702:1 83311:1 84843:1 96075:1 110105:1 125136:1 139748:1 140778:1 #
0.32002820570582607428988808351278 21300:1 36878:1 90670:1 96075:1 110105:1 113317:1 139748:1 140778:1 #
0.24555497660835351458885611464211 23262:1 41672:1 69165:1 96075:1 97702:1 110105:1 139748:1 140778:1 #
0.30799526444532515645491344002949 90194:1 93964:1 96075:1 109511:1 110105:1 110664:1 139748:1 140778:1 #
0.060416907520948782972514123912333 44122:1 50225:1 96075:1 110105:1 122740:1 122827:1 139748:1 140778:1 #
-0.34473316365879808076400081517932 1431:1 19313:1 58203:1 93041:1 96075:1 110105:1 127282:1 140778:1 #
-0.14341772849143050172493474292423 1431:1 19313:1 55288:1 58203:1 96075:1 110105:1 118789:1 140778:1 #
-0.62788218366749604104626314438065 1431:1 19313:1 35087:1 58203:1 96075:1 110105:1 132059:1 140778:1 #
-0.4714903494531943461964829111821 1431:1 19313:1 58203:1 96075:1 101805:1 110105:1 130311:1 140778:1 #
0.10623659414851270577084818569347 50935:1 79297:1 88873:1 89075:1 140785:1 #
0.18207903071925959914700854369585 52761:1 86930:1 88873:1 117647:1 140785:1 #
-0.11382628135067938968116862952229 53499:1 70110:1 96075:1 110106:1 121618:1 134724:1 139748:1 140785:1 #
-0.19110500468276292451719200471416 38774:1 46811:1 96075:1 110106:1 121618:1 134724:1 139748:1 140785:1 #
0.0014707222023223678886161280843226 1431:1 70465:1 88860:1 96075:1 114876:1 122129:1 138200:1 140778:1 #
0.30065591462740670625208849742194 8116:1 19313:1 53912:1 58203:1 78384:1 96075:1 110105:1 140778:1 #
-0.46943360733543226803732295593363 46891:1 53912:1 64550:1 78384:1 96075:1 97397:1 110105:1 140778:1 #
-0.097877037946707171056637264427991 63032:1 88870:1 106335:1 121319:1 122755:1 124843:1 134366:1 140778:1 #
-0.53054885719961553114387697860366 1431:1 7889:1 22164:1 79412:1 88873:1 96075:1 103077:1 140778:1 #
-0.1184230809240654075376042442258 10559:1 11593:1 61484:1 62286:1 88870:1 121319:1 139757:1 140778:1 #
-0.10884329753724157618943735315042 48547:1 76509:1 110102:1 114420:1 121319:1 122335:1 139752:1 140778:1 #
-0.084118001891675939218906421501742 76453:1 81574:1 96075:1 110106:1 117304:1 122717:1 137769:1 140781:1 #
0.36621927548045218880901074953726 7889:1 30195:1 77949:1 79412:1 88873:1 96075:1 139747:1 140778:1 #
-0.0020632034657712744127322501697108 1431:1 42084:1 63540:1 85500:1 96075:1 110106:1 137593:1 140783:1 #
-0.089027921001351623120356748586346 10568:1 79134:1 81596:1 96075:1 102402:1 110106:1 139747:1 140780:1 #
-0.041339493906728141947581889326102 4527:1 10568:1 57350:1 79134:1 96075:1 110106:1 139747:1 140780:1 #
0.5362679715603747565566550292715 9313:1 22410:1 81969:1 84721:1 96075:1 110105:1 122706:1 140778:1 #
0.61103106041717625274145575531293 78747:1 96075:1 96684:1 110106:1 117304:1 137769:1 139746:1 140781:1 #
0.2182514162158691317650038854481 17349:1 36235:1 76624:1 76773:1 88873:1 96075:1 139747:1 140778:1 #
-0.92647331834586299503797590659815 1431:1 55152:1 68314:1 76624:1 76773:1 88873:1 96075:1 140778:1 #
-0.6696629590219339567269685176143 1431:1 25627:1 31879:1 76624:1 76773:1 88873:1 96075:1 140778:1 #
-1 50143:1 87416:1 95863:1 96075:1 110105:1 120468:1 139757:1 140781:1 #
-0.10597341587558604947272300478289 2373:1 69618:1 84392:1 94144:1 96075:1 110106:1 139750:1 140781:1 #
-0.15523882434902841476187518310326 2373:1 28531:1 41432:1 84392:1 96075:1 110106:1 139750:1 140781:1 #
0.21825141621586821583100856969395 76624:1 76773:1 88873:1 96075:1 121142:1 123412:1 139747:1 140778:1 #
0.18064146197175967589743095231825 15812:1 88870:1 89075:1 137580:1 140781:1 #
-0.32924306005630959992558359772374 86419:1 88873:1 89075:1 124769:1 140780:1 #
0.43751381668558719795214528858196 81969:1 84721:1 95863:1 96075:1 103035:1 110105:1 139757:1 140778:1 #
0.00050751530092026065580507188101933 1431:1 18468:1 42017:1 83378:1 88860:1 90397:1 96075:1 140778:1 #
-0.0061311421561163724491816395811838 1431:1 9156:1 55413:1 58671:1 88870:1 96075:1 110360:1 140778:1 #
-0.00099571418679493713110861818904596 1431:1 14577:1 33861:1 51218:1 96075:1 110105:1 125735:1 140778:1 #
-0.00048089041200376751337627889704152 1431:1 14577:1 51218:1 68031:1 84629:1 96075:1 110105:1 140778:1 #
-0.084526973433277335923108353199495 1431:1 9156:1 10829:1 81810:1 88870:1 96075:1 110360:1 140778:1 #
0.1804967719420978999878002468904 23931:1 88870:1 89075:1 127175:1 140780:1 #
-0.45128291498347106180943910658243 11626:1 89075:1 99238:1 110105:1 140785:1 #
0.19862243453050712482799156077817 46109:1 80105:1 88870:1 96075:1 122755:1 140664:1 140778:1 142189:1 #
0.1631253391883796532990658079143 1431:1 10887:1 59467:1 81810:1 88985:1 96075:1 110102:1 140778:1 #
-0.023156351114062445617491903249174 1431:1 47110:1 68659:1 75959:1 96075:1 110106:1 115425:1 140781:1 #
-0.015056258267772376635562636693066 1431:1 15777:1 69736:1 82238:1 96075:1 110106:1 139279:1 140781:1 #
-0.42093309321374988707376019192452 7889:1 12238:1 43526:1 79412:1 88873:1 96075:1 139746:1 140778:1 #
-0.19098103294653198669372784479492 22448:1 53440:1 66714:1 88873:1 96075:1 122717:1 138148:1 140778:1 #
0.19680302355407042202983802781091 53912:1 53954:1 78384:1 87778:1 96075:1 110105:1 140778:1 142106:1 #
0.19680302355407067183001856847113 14991:1 53912:1 78384:1 96075:1 105536:1 109608:1 110105:1 140778:1 #
0.12374423071924084416295386290585 77346:1 88873:1 96075:1 97526:1 123418:1 127387:1 139747:1 140778:1 #
0.012257470049221322674903866811746 18147:1 23071:1 40132:1 88873:1 96075:1 97719:1 139747:1 140778:1 #
0.19712505079557915421695213353814 88873:1 96075:1 110124:1 113067:1 127041:1 131883:1 139747:1 140778:1 #
0.19647589832969911127769080394501 51585:1 88873:1 96075:1 105036:1 115891:1 124205:1 139747:1 140778:1 #
0.26599533482212750490347730192298 48496:1 51959:1 59819:1 88873:1 96075:1 139747:1 140778:1 141288:1 #
-1 52166:1 53912:1 70894:1 78384:1 88873:1 96075:1 100724:1 140778:1 #
-0.10859128309864757300218229829625 88873:1 96075:1 111934:1 112422:1 122706:1 128252:1 140738:1 140778:1 #
-0.53060408319434948509751848177984 55072:1 77148:1 84064:1 88873:1 96075:1 137928:1 139748:1 140778:1 #
-0.33147259376165449928919315425446 37708:1 58735:1 88873:1 96075:1 101240:1 132508:1 139748:1 140778:1 #
0.30007371457472475917427345848409 59264:1 81887:1 81969:1 84721:1 96075:1 110105:1 122755:1 140778:1 #
0.046089045741083398133319803946506 30852:1 88873:1 89075:1 106791:1 140783:1 #
0.14502395584794752769752790300117 3681:1 73695:1 88873:1 89075:1 140783:1 #
0.13570856746932746794698232406517 26056:1 88873:1 89075:1 105549:1 140783:1 #
-0.18384054241790154238245236228977 53912:1 66890:1 78406:1 94206:1 102815:1 121319:1 #
0.31826781297345385635111369992956 10729:1 39354:1 96075:1 110105:1 122706:1 126614:1 140778:1 141487:1 #
-0.030517302259753111004503267622567 1431:1 73486:1 85332:1 96075:1 110106:1 121618:1 134724:1 140785:1 #
0.13640858864758181878684695220727 65901:1 66890:1 96075:1 97140:1 127794:1 139748:1 #
-0.066196392859624711424437748519267 1431:1 11310:1 92134:1 96075:1 110105:1 112698:1 118358:1 140778:1 #
0.17499583399560905694336554461188 9249:1 66890:1 96075:1 97140:1 105467:1 122717:1 #
0.17452579396968398439682346179325 28320:1 38442:1 66890:1 96075:1 97140:1 122717:1 #
-1 23588:1 75855:1 90281:1 96075:1 105011:1 122706:1 #
0.51782344550423919926629423571285 2686:1 71951:1 87239:1 96075:1 110058:1 110105:1 122706:1 140778:1 #
0.75915380863254888765823125140741 11600:1 82944:1 96075:1 110105:1 116480:1 135288:1 139747:1 140778:1 #
-0.12607049142689102927405997434107 13396:1 14577:1 51218:1 96075:1 110105:1 122717:1 136439:1 140778:1 #
-0.12567429629162790716279118896637 14577:1 24668:1 51218:1 96075:1 110105:1 119963:1 122717:1 140778:1 #
-0.015059122863133198033658288750303 1431:1 15777:1 69736:1 84393:1 96075:1 110106:1 122796:1 140781:1 #
-0.01502750509379656256025992178138 1431:1 1651:1 15777:1 56685:1 69736:1 96075:1 110106:1 140781:1 #
-0.015300895251910221969704473110596 1431:1 15777:1 22217:1 69736:1 83637:1 96075:1 110106:1 140781:1 #
0.010515501229324158635747288315088 1431:1 57590:1 75855:1 79460:1 90281:1 96075:1 #
-1 49454:1 75855:1 90281:1 94774:1 96075:1 122706:1 #
-1 55716:1 71141:1 75855:1 90281:1 96075:1 122706:1 #
-1 49348:1 75855:1 83061:1 90281:1 96075:1 139746:1 #
-1 46911:1 75855:1 89598:1 90281:1 96075:1 139748:1 #
0.55077749192256464372263735640445 14577:1 28003:1 46742:1 51218:1 96075:1 110105:1 122755:1 140778:1 #
0.1261030633304955073104025586872 1431:1 10887:1 62104:1 80717:1 88985:1 96075:1 110102:1 140778:1 #
0.16888212205427532985879679472419 1431:1 10887:1 33201:1 88985:1 96075:1 110102:1 118418:1 140778:1 #
0.20096415277849977165658401645487 1431:1 2332:1 10887:1 13625:1 88985:1 96075:1 110102:1 140778:1 #
-0.15231358046929613370146228135127 1431:1 1713:1 91640:1 92438:1 96075:1 110105:1 139448:1 140778:1 #
-0.53269779489676538641873548840522 1431:1 1786:1 22413:1 23987:1 38385:1 96075:1 110105:1 140778:1 #
-0.083997691406533042668414168474555 1431:1 51980:1 56580:1 81877:1 96075:1 102556:1 110105:1 140778:1 #
0.010490450767925157612991959865667 1431:1 75855:1 90281:1 96075:1 124596:1 139570:1 #
-0.015095497187691073875948077898101 1431:1 15777:1 17598:1 52247:1 69736:1 96075:1 110106:1 140781:1 #
-0.015012909692595917746094080769126 1431:1 15777:1 31582:1 69736:1 96075:1 110106:1 117857:1 140781:1 #
-0.015040428830815081445715364338866 1431:1 15777:1 35584:1 63140:1 69736:1 96075:1 110106:1 140781:1 #
-0.01490945709468607938141815338895 1431:1 15777:1 69736:1 96075:1 110106:1 111578:1 114137:1 140781:1 #
-0.083533359673065743500330881943228 35012:1 96075:1 110106:1 121618:1 122717:1 125352:1 134724:1 140785:1 #
0.11778201418694134172682197458926 1431:1 17210:1 22413:1 23987:1 69014:1 96075:1 110105:1 140778:1 #
0.21828747265154666012954010057001 1431:1 15227:1 56498:1 96075:1 103865:1 110105:1 111185:1 140778:1 #
0.27962976881051865296612390920927 1431:1 15227:1 19405:1 65101:1 85501:1 96075:1 110105:1 140778:1 #
-0.085608830946418898455441137684829 1431:1 30920:1 71181:1 96075:1 99641:1 110105:1 118418:1 140778:1 #
-0.14985525879034772289699617431324 1431:1 1633:1 2332:1 71587:1 96075:1 110105:1 128708:1 140778:1 #
-0.34471050642451817047628992440877 1431:1 19313:1 58203:1 95876:1 96075:1 110105:1 113098:1 140778:1 #
-0.050204927165453730464328430116439 1431:1 38694:1 51267:1 87066:1 96075:1 110105:1 122907:1 140778:1 #
-0.014570454060871885701433647852809 55868:1 73925:1 96075:1 110106:1 111143:1 123107:1 139752:1 140780:1 #
-0.13696347363965183374645562253136 10568:1 50175:1 65829:1 79134:1 96075:1 110106:1 139748:1 140780:1 #
0.44029065774478126638058483877103 23188:1 66890:1 96075:1 97140:1 122706:1 140570:1 #
-0.030383365782293038359629377964666 1431:1 42707:1 81535:1 96075:1 110106:1 121618:1 134724:1 140785:1 #
-0.13044722437502170864220829571423 7074:1 9286:1 96075:1 100207:1 107506:1 110106:1 139747:1 140781:1 #
-0.039920914078101409072640848307856 43077:1 58092:1 96075:1 102642:1 110106:1 113703:1 139747:1 140781:1 #
-0.041420987020262499400669042870504 58092:1 96075:1 101990:1 102642:1 110106:1 113782:1 139747:1 140781:1 #
-0.11875704877178373808366274033688 58092:1 96075:1 102642:1 108251:1 110106:1 139747:1 140781:1 141442:1 #
-0.13044722437502190293123760511662 9286:1 19849:1 37466:1 96075:1 100207:1 110106:1 139747:1 140781:1 #
0.21998549596496289049163408435561 317:1 1431:1 44122:1 50225:1 96075:1 108290:1 110105:1 140778:1 #
-0.16064390808246870046005483345652 11661:1 49985:1 59206:1 96075:1 110105:1 115214:1 122717:1 140778:1 #
0.23306712476586274873646686955908 37448:1 61281:1 66104:1 96075:1 104257:1 110106:1 124139:1 140778:1 #
0.34982778556044519246981394644536 13192:1 22395:1 30633:1 38048:1 88870:1 96075:1 139747:1 140778:1 #
-0.3280982547957509432023925910471 1431:1 30212:1 45414:1 47484:1 68661:1 88870:1 96075:1 140778:1 #
-0.21862115108930413320820207445649 1431:1 16110:1 24236:1 33487:1 88870:1 90983:1 96075:1 140778:1 #
-0.2777244785245305269683058213559 1431:1 26694:1 53919:1 88870:1 90264:1 96075:1 111954:1 140778:1 #
-0.27816584935837274095149496133672 1431:1 26694:1 41252:1 77338:1 88870:1 96075:1 137433:1 140778:1 #
-0.21865994364632435065232130000368 1431:1 16110:1 24236:1 62517:1 88870:1 91150:1 96075:1 140778:1 #
0.31824819743376336900197998147632 20045:1 34654:1 76099:1 96075:1 110105:1 122706:1 125940:1 140778:1 #
0.10103476617169519780059516733672 29106:1 47095:1 96075:1 110105:1 122706:1 132479:1 132900:1 140778:1 #
0.010492562725526930617059306882766 1285:1 1431:1 27585:1 75855:1 90281:1 96075:1 #
-0.14069906650510624612770982366783 10568:1 38607:1 79134:1 96075:1 110106:1 122706:1 128654:1 140780:1 #
-0.14442081092629585614695031381416 39361:1 91294:1 96075:1 110105:1 117132:1 122706:1 123910:1 140778:1 #
-0.1815015147693394559347268568672 17943:1 59487:1 76974:1 96075:1 107374:1 110105:1 122706:1 140778:1 #
-0.015052609189167568543021857863096 1431:1 15777:1 19485:1 69736:1 96075:1 97150:1 110106:1 140781:1 #
0.051475794057422079308405926667547 4485:1 23071:1 66977:1 75425:1 88873:1 96075:1 139747:1 140779:1 #
-0.015016088656969052428369337803815 1431:1 15777:1 69736:1 96075:1 110106:1 116913:1 126160:1 140781:1 #
0.16283992587035475696488617813884 1248:1 1499:1 4857:1 37608:1 96075:1 110105:1 139746:1 140778:1 #
-0.1625934897791390942867195690269 11626:1 89075:1 99238:1 110105:1 140785:1 #
0.36187845076039565350711768587644 1431:1 36067:1 37745:1 72071:1 84301:1 96075:1 110105:1 140778:1 #
0.3054746103494509479325813572359 1431:1 85499:1 91384:1 96075:1 110105:1 123223:1 138431:1 140778:1 #
-0.079996613093833421337386369032174 1431:1 9611:1 86702:1 88873:1 95807:1 96075:1 122122:1 140778:1 #
-0.3502824623412723048510031276237 1431:1 37745:1 92311:1 96075:1 110105:1 123126:1 135050:1 140779:1 #
-0.88496360922107863977714714565082 1431:1 84925:1 96075:1 110105:1 119821:1 123126:1 135050:1 140779:1 #
-0.01033210425787721258028550863628 1431:1 30893:1 81719:1 96075:1 99833:1 110105:1 124504:1 140779:1 #
0.010480305983720699172789814213047 1431:1 4282:1 17481:1 75855:1 90281:1 96075:1 #
0.10285360333389943765514118467763 33254:1 40826:1 43909:1 46357:1 88873:1 96075:1 139747:1 140778:1 #
0.36164946083342081051270611169457 25257:1 25604:1 77188:1 88873:1 96075:1 109302:1 139747:1 140778:1 #
0.36164946083341970028968148653803 25604:1 77188:1 88873:1 93683:1 96075:1 105822:1 139747:1 140778:1 #
-1 46272:1 52166:1 66104:1 70894:1 88873:1 96075:1 104257:1 140778:1 #
-0.31548373034592308572499064212025 1431:1 25604:1 77188:1 79581:1 88873:1 96075:1 136594:1 140778:1 #
-0.9012611583682726967836629228259 1431:1 25604:1 49588:1 77188:1 77683:1 88873:1 96075:1 140778:1 #
-0.30913553901856832828443089056236 19821:1 88870:1 90329:1 96075:1 97807:1 132228:1 139747:1 140779:1 #
0.16039293694697698278162079077447 13549:1 46427:1 76226:1 96075:1 110105:1 133123:1 139748:1 140778:1 #
-0.28209263948401180899239193422545 60449:1 67328:1 96075:1 110105:1 116480:1 135288:1 139748:1 140778:1 #
-0.71590329230535332261098346862127 48820:1 88870:1 95152:1 96075:1 115408:1 122706:1 140018:1 140778:1 #
0.10170928165276485466428368908964 41937:1 58705:1 88873:1 96480:1 140784:1 #
-0.093164082707034606700702283887949 12903:1 31609:1 95160:1 96075:1 110106:1 117779:1 139747:1 140782:1 #
-0.023156351114063073587390206853343 1431:1 45669:1 47110:1 75959:1 96075:1 110106:1 130978:1 140781:1 #
-0.27553965522170070778784634057956 7255:1 66035:1 95424:1 104257:1 121141:1 121319:1 #
0.054046923597625397273080949389623 81969:1 84721:1 88615:1 94366:1 96075:1 110105:1 122755:1 140778:1 #
0.33682812029583952817546332880738 36514:1 75855:1 78405:1 121319:1 135295:1 139750:1 #
-0.030396780388954481449959033056984 1431:1 71554:1 85175:1 96075:1 110106:1 121618:1 134724:1 140785:1 #
-0.10114597734126790085085190185055 4465:1 71491:1 85626:1 88870:1 121319:1 122755:1 126764:1 140778:1 #
-0.071239844888958472890472251037863 39188:1 63032:1 71503:1 88870:1 121319:1 122755:1 134366:1 140778:1 #
-0.095446332777989029150234046028345 3501:1 10560:1 88870:1 118347:1 121319:1 133991:1 139757:1 140778:1 #
0.11128560399360622190645386808683 15001:1 34228:1 50272:1 73156:1 88870:1 96075:1 122717:1 140778:1 #
0.11131793318620758492798472616414 65181:1 83096:1 88870:1 96075:1 107996:1 122717:1 135990:1 140778:1 #
0.11132123622064728218905571566211 34857:1 42078:1 76410:1 88870:1 96075:1 112802:1 122717:1 140778:1 #
-0.36777245750558112957762091355107 1431:1 25604:1 77188:1 79581:1 88873:1 96075:1 136594:1 140778:1 #
0.26664593842709266580115468059375 36514:1 62764:1 75855:1 117646:1 121319:1 122706:1 #
-0.77191292905240160848734376486391 49087:1 63715:1 75855:1 90281:1 96075:1 139746:1 #
-1 29966:1 54972:1 75855:1 90281:1 96075:1 139752:1 #
-0.015007182624695965950101239627656 1431:1 15777:1 23008:1 69736:1 96075:1 97539:1 110106:1 140781:1 #
-0.015049386133410393509568514502917 1431:1 2120:1 9222:1 15777:1 69736:1 96075:1 110106:1 140781:1 #
-0.015011644407702737225029920864472 1431:1 15777:1 19818:1 33874:1 69736:1 96075:1 110106:1 140781:1 #
-0.010485262015576864852439697983755 1431:1 15777:1 69736:1 96075:1 110106:1 111222:1 117315:1 140781:1 #
-0.015049386133409959828699520301143 1431:1 15777:1 69736:1 96075:1 107991:1 110106:1 122333:1 140781:1 #
-1 53912:1 69477:1 75855:1 90281:1 96075:1 111713:1 #
0.61882766936414101976993151765782 6235:1 52050:1 78360:1 88873:1 140778:1 #
0.23623745682319827188244687476981 28230:1 40717:1 78361:1 88873:1 140784:1 #
0.24386498148435656330157428328675 23078:1 82215:1 88870:1 96075:1 122755:1 125807:1 134024:1 140778:1 #
0.18999208149612623053315019205911 63680:1 75855:1 123112:1 #
-0.34611152664775529652629870724923 56013:1 66890:1 101931:1 #
-0.12403547461776279203782280546875 93741:1 96075:1 110101:1 113094:1 125086:1 139567:1 139752:1 140778:1 #
-0.042071681287620871225740870613663 55868:1 76607:1 93741:1 96075:1 110101:1 139567:1 139752:1 140778:1 #
-0.077873243355048069047619208049582 88712:1 93741:1 96075:1 110101:1 125811:1 139567:1 139752:1 140778:1 #
-0.01501608865696870895312109439601 1431:1 15777:1 36450:1 69736:1 95363:1 96075:1 110106:1 140781:1 #
-0.015016088656968497316857025225545 1431:1 15777:1 32672:1 69736:1 87101:1 96075:1 110106:1 140781:1 #
-0.010547665894854819923498467915124 1431:1 15777:1 69736:1 86715:1 93592:1 96075:1 110106:1 140781:1 #
-0.015017757292057558327069699544154 1431:1 15777:1 39545:1 64114:1 69736:1 96075:1 110106:1 140781:1 #
-0.026991535331485301540954679921924 1431:1 15215:1 15777:1 69736:1 96075:1 110106:1 135697:1 140781:1 #
0.1400659865176542284714855668426 3421:1 75855:1 90281:1 96075:1 129074:1 139750:1 #
-0.014999541555259550060230644419335 1431:1 1751:1 6951:1 15777:1 69736:1 96075:1 110106:1 140781:1 #
-0.01501775729205760863405050287156 1431:1 15777:1 34882:1 69736:1 96075:1 110106:1 116927:1 140781:1 #
-0.015046705914902659337317736287787 1431:1 15777:1 46959:1 69736:1 96075:1 103574:1 110106:1 140781:1 #
-0.014999541555259126787702506078404 1431:1 15777:1 63586:1 67683:1 69736:1 96075:1 110106:1 140781:1 #
-0.015059122863133298647619895405114 1431:1 15777:1 18256:1 69736:1 92252:1 96075:1 110106:1 140781:1 #
-0.015012909692596309793599651527529 1431:1 15777:1 36709:1 69736:1 79820:1 96075:1 110106:1 140781:1 #
-0.16060913724542619229751494458469 279:1 96075:1 106578:1 110105:1 122717:1 137377:1 140778:1 141405:1 #
-0.16064390808246928332714276166371 4477:1 22697:1 96075:1 110105:1 122717:1 129981:1 140778:1 142203:1 #
-0.0034531814212012679199403919483302 1431:1 15777:1 69736:1 92247:1 96075:1 110106:1 111878:1 140781:1 #
0.16633231715574928188949854757084 49467:1 54397:1 75855:1 90281:1 96075:1 139746:1 #
-0.015049386133410204424709633030943 1431:1 15777:1 69736:1 87647:1 96075:1 110106:1 140781:1 142706:1 #
0.11568146800297296472592734062346 28150:1 44449:1 48288:1 56115:1 88870:1 96075:1 139747:1 140778:1 #
-0.49287297866726120787461695726961 75855:1 78353:1 135340:1 #
0.010533872307807218629549517174837 1431:1 31140:1 75855:1 90281:1 96075:1 112057:1 #
-0.066108779321782648596972364885005 1431:1 4241:1 58623:1 96075:1 106886:1 110105:1 132949:1 140778:1 #
0.13143704377338547018005954214459 14127:1 39798:1 78221:1 84876:1 96075:1 110105:1 139746:1 140778:1 #
-0.20351788368061757283911106242158 1431:1 33860:1 62995:1 81849:1 96075:1 110105:1 130356:1 140778:1 #
-0.014988126870726091108276811780797 1431:1 15777:1 25421:1 69736:1 96075:1 110106:1 140781:1 142412:1 #
-0.015576180526527681063919672510565 1431:1 15777:1 17141:1 69736:1 82685:1 96075:1 110106:1 140781:1 #
-0.015588412776709073201408806141899 1431:1 15777:1 69736:1 95899:1 96075:1 110106:1 112668:1 140781:1 #
-0.015040428830815038077628464918689 1431:1 11606:1 15777:1 69736:1 78778:1 96075:1 110106:1 140781:1 #
-0.015011644407702758041711632586157 1431:1 15777:1 69736:1 72765:1 96075:1 110106:1 124309:1 140781:1 #
0.12767721902697426461514851325774 1431:1 78625:1 96075:1 109511:1 110105:1 110664:1 125987:1 140778:1 #
0.12764199354002864206236722566246 1431:1 69863:1 92547:1 96075:1 109511:1 110105:1 110664:1 140778:1 #
0.12764199354002897512927461320942 1431:1 5398:1 91660:1 96075:1 109511:1 110105:1 110664:1 140778:1 #
-0.030802858346923849691689767382741 1431:1 20376:1 81719:1 96075:1 110105:1 111865:1 124504:1 140779:1 #
0.18989293966352788212148539059854 75855:1 98262:1 123287:1 #
0.16138192691593600258670448965859 18164:1 28669:1 97607:1 #
-0.17199473959019262458980392693775 50216:1 78364:1 88870:1 92164:1 140780:1 #
-0.0045186091435804849950064188135457 1431:1 73925:1 96075:1 110106:1 111143:1 128605:1 134934:1 140780:1 #
-0.044841912883809134648949168422405 20669:1 78353:1 88860:1 96980:1 140781:1 #
-0.33033519026383295624782476807013 1431:1 76381:1 88586:1 88873:1 91320:1 96075:1 140778:1 141970:1 #
-0.24341394609635910728506758005096 362:1 1431:1 49118:1 66818:1 88873:1 89265:1 96075:1 140778:1 #
-0.17247137158679679003192575237335 1431:1 12394:1 88873:1 96075:1 100439:1 115646:1 119798:1 140778:1 #
0.12607770658106690064848010024434 1431:1 3192:1 10887:1 88985:1 96075:1 110102:1 138572:1 140778:1 #
0.12607770658106673411502640647086 1431:1 10887:1 69535:1 88985:1 96075:1 110102:1 131697:1 140778:1 #
0.081510504704075684156983072625735 1431:1 10887:1 64814:1 88985:1 96075:1 105425:1 110102:1 140778:1 #
-0.4005001937056327787622933556122 53243:1 81078:1 88870:1 96075:1 125708:1 128774:1 139752:1 140778:1 #
0.044447857896333195504290358712751 10887:1 59896:1 88985:1 96075:1 110102:1 113017:1 122706:1 140778:1 #
0.23700927953694214678215246294712 7911:1 10887:1 78882:1 88985:1 96075:1 110102:1 122706:1 140778:1 #
-0.01504670591490275301238543903537 1431:1 15777:1 60471:1 69736:1 96075:1 110106:1 121361:1 140781:1 #
-0.01505912286313364732703856674334 1431:1 5048:1 15777:1 69736:1 96075:1 97967:1 110106:1 140781:1 #
0.010488025439513173897587705596379 1431:1 15683:1 75855:1 90281:1 96075:1 108134:1 #
-0.015016088656969014264452866314059 1431:1 15777:1 43710:1 69736:1 96075:1 110106:1 137689:1 140781:1 #
0.19236860433583291563053307982045 1838:1 11209:1 50275:1 94067:1 96075:1 110105:1 139747:1 140778:1 #
0.11598726669759588936425842575773 2923:1 14196:1 68891:1 88870:1 96075:1 121758:1 139747:1 140778:1 #
-0.81204952584220879696630390753853 1431:1 5651:1 37940:1 52972:1 88873:1 96075:1 134690:1 140778:1 #
-0.098730775638983747644061850223807 1431:1 43874:1 51659:1 85017:1 88873:1 93346:1 96075:1 140778:1 #
-0.039216528622464032205474637748921 1431:1 88873:1 96075:1 106361:1 114697:1 116045:1 124869:1 140778:1 #
0.1453901982908682166684144476676 96075:1 103472:1 110105:1 123223:1 135505:1 138431:1 139748:1 140778:1 #
0.11041076932712362568267394635768 23069:1 96075:1 110105:1 121410:1 122706:1 123223:1 138431:1 140778:1 #
0.14171590595434788162343409112509 38486:1 96075:1 110105:1 122706:1 123223:1 137247:1 138431:1 140778:1 #
0.19748948066398072653804263154598 96075:1 101554:1 110105:1 123223:1 138431:1 139752:1 140778:1 141371:1 #
0.19339305392550340534363328970358 15009:1 95658:1 96075:1 110105:1 123223:1 138431:1 139747:1 140778:1 #
-0.1516996104869601513787102931019 14853:1 19571:1 33262:1 96075:1 110105:1 136059:1 139752:1 140778:1 #
-0.14845533474320518618760900153575 70275:1 71631:1 89048:1 96075:1 110105:1 134606:1 139752:1 140778:1 #
0.019749320426914178383537290528693 53217:1 88873:1 95042:1 117647:1 128379:1 #
0.066709183806160948781993624834286 1431:1 44737:1 88873:1 96075:1 102296:1 123009:1 131558:1 140779:1 #
-0.099555709889480342722478667383257 1431:1 76613:1 96075:1 98061:1 102053:1 110105:1 122016:1 140778:1 #
-0.12469499923083575410043266629145 96075:1 110106:1 116088:1 117304:1 137769:1 139752:1 139959:1 140781:1 #
0.049017191591143489948212419449192 1431:1 28486:1 87293:1 96075:1 110105:1 117136:1 123620:1 140778:1 #
0.068259242636350400679212668819673 1431:1 7247:1 25405:1 28486:1 96075:1 110105:1 117136:1 140778:1 #
-0.1232924805531946943482068945741 17940:1 28983:1 96075:1 110105:1 111016:1 139748:1 140778:1 141008:1 #
-0.179674110571989648077462220499 25892:1 31238:1 41073:1 68650:1 96075:1 110105:1 139748:1 140778:1 #
-0.15517063931557928402327206640621 16771:1 20595:1 58950:1 96075:1 110105:1 125191:1 139748:1 140778:1 #
-0.030406894101516687700659247184376 263:1 1431:1 96075:1 110106:1 120414:1 121618:1 134724:1 140785:1 #
0.046624366530845652578651794328835 1431:1 26859:1 75855:1 90281:1 92627:1 96075:1 #
